{"learner":{"attributes":{"scikit_learn":"{\"_estimator_type\": \"regressor\"}"},"feature_names":["year","selling_price","km_driven","fuel","seller_type","transmission","owner"],"feature_types":["int","float","int","int","int","int","int"],"gradient_booster":{"model":{"gbtree_model_param":{"num_parallel_tree":"1","num_trees":"100"},"iteration_indptr":[0,1,2,3,4,5,6,7,8,9,10,11,12,13,14,15,16,17,18,19,20,21,22,23,24,25,26,27,28,29,30,31,32,33,34,35,36,37,38,39,40,41,42,43,44,45,46,47,48,49,50,51,52,53,54,55,56,57,58,59,60,61,62,63,64,65,66,67,68,69,70,71,72,73,74,75,76,77,78,79,80,81,82,83,84,85,86,87,88,89,90,91,92,93,94,95,96,97,98,99,100],"tree_info":[0,0,0,0,0,0,0,0,0,0,0,0,0,0,0,0,0,0,0,0,0,0,0,0,0,0,0,0,0,0,0,0,0,0,0,0,0,0,0,0,0,0,0,0,0,0,0,0,0,0,0,0,0,0,0,0,0,0,0,0,0,0,0,0,0,0,0,0,0,0,0,0,0,0,0,0,0,0,0,0,0,0,0,0,0,0,0,0,0,0,0,0,0,0,0,0,0,0,0,0],"trees":[{"base_weights":[-1.2306352E-2,-5.070069E4,1.7537448E6,-1.4958606E5,2.2887798E5,1.28835E6,2.6755952E6,-2.1491E5,-4.873645E4,1.5225412E5,5.3572625E5,2.898631E5,4.476471E5,6.534468E5,9.065814E5,-2.592046E5,-1.7015312E5,-9.0085055E4,-3.2050085E3,1.02731484E5,2.4546116E5,4.5313897E5,2.107983E5,-8.4603984E4,-2.3798223E5,-1.8693269E5,-1.4530455E5,-1.09254164E5,-6.78042E4,-2.9294105E4,1.365931E4,7.4885766E4,1.414741E5,6.2025605E4,8.751082E4,1.1597543E5,1.5066177E5,-7.382398E4,-6.69228E4,-5.9219027E4,-5.212066E4,-4.6272582E4,-4.113667E4,-3.6451562E4,-3.0167703E4,-2.2474648E4,-1.639675E4,-1.1095001E4,-5.2707876E3,-1.6981459E1,7.65253E3,1.8086041E4,2.767185E4,3.7868152E4,4.8202945E4],"categories":[],"categories_nodes":[],"categories_segments":[],"categories_sizes":[],"default_left":[0,0,0,0,0,0,0,0,0,0,0,0,0,0,0,0,0,0,0,0,0,0,0,0,0,0,0,0,0,0,0,0,0,0,0,0,0,0,0,0,0,0,0,0,0,0,0,0,0,0,0,0,0,0,0],"id":0,"left_children":[1,3,5,7,9,11,13,15,17,19,21,-1,-1,-1,-1,23,25,27,29,31,33,35,-1,-1,37,39,41,43,45,47,49,51,53,-1,-1,-1,-1,-1,-1,-1,-1,-1,-1,-1,-1,-1,-1,-1,-1,-1,-1,-1,-1,-1,-1],"loss_changes":[3.860735E14,1.16701375E14,4.8893874E13,2.0530585E13,2.5852058E13,4.0075736E12,3.0913698E11,3.706758E12,2.3097374E12,4.055202E12,2.7146668E12,0E0,0E0,0E0,0E0,3.922555E11,3.6643747E11,2.6722016E11,2.5778543E11,6.140398E11,4.8742216E11,2.9569424E11,0E0,0E0,5.217714E9,4.3037753E10,7.0039634E9,2.4426316E10,2.3955898E10,2.0085834E10,5.785912E10,8.032354E10,5.027712E10,0E0,0E0,0E0,0E0,0E0,0E0,0E0,0E0,0E0,0E0,0E0,0E0,0E0,0E0,0E0,0E0,0E0,0E0,0E0,0E0,0E0,0E0],"parents":[2147483647,0,0,1,1,2,2,3,3,4,4,5,5,6,6,7,7,8,8,9,9,10,10,15,15,16,16,17,17,18,18,19,19,20,20,21,21,24,24,25,25,26,26,27,27,28,28,29,29,30,30,31,31,32,32],"right_children":[2,4,6,8,10,12,14,16,18,20,22,-1,-1,-1,-1,24,26,28,30,32,34,36,-1,-1,38,40,42,44,46,48,50,52,54,-1,-1,-1,-1,-1,-1,-1,-1,-1,-1,-1,-1,-1,-1,-1,-1,-1,-1,-1,-1,-1,-1],"split_conditions":[1.206E6,3.752E5,2.546E6,2.077E5,6.8675E5,1.675E6,3.015E6,1.2395E5,2.9144934E5,5.1121E5,9.38E5,2.898631E5,4.476471E5,6.534468E5,9.065814E5,8.04E4,1.742E5,2.5125E5,3.3165E5,4.489E5,5.8625E5,7.7117E5,2.107983E5,-8.4603984E4,1.0117E5,1.5409933E5,1.943E5,2.278E5,2.7469934E5,3.1155E5,3.5175E5,4.154E5,4.8508E5,6.2025605E4,8.751082E4,1.1597543E5,1.5066177E5,-7.382398E4,-6.69228E4,-5.9219027E4,-5.212066E4,-4.6272582E4,-4.113667E4,-3.6451562E4,-3.0167703E4,-2.2474648E4,-1.639675E4,-1.1095001E4,-5.2707876E3,-1.6981459E1,7.65253E3,1.8086041E4,2.767185E4,3.7868152E4,4.8202945E4],"split_indices":[1,1,1,1,1,1,1,1,1,1,1,0,0,0,0,1,1,1,1,1,1,1,0,0,1,1,1,1,1,1,1,1,1,0,0,0,0,0,0,0,0,0,0,0,0,0,0,0,0,0,0,0,0,0,0],"split_type":[0,0,0,0,0,0,0,0,0,0,0,0,0,0,0,0,0,0,0,0,0,0,0,0,0,0,0,0,0,0,0,0,0,0,0,0,0,0,0,0,0,0,0,0,0,0,0,0,0,0,0,0,0,0,0],"sum_hessian":[4.34E3,4.219E3,1.21E2,3.117E3,1.102E3,8.2E1,3.9E1,1.891E3,1.226E3,8.83E2,2.19E2,3.4E1,4.8E1,1.9E1,2E1,9.48E2,9.43E2,6.42E2,5.84E2,5.78E2,3.05E2,1.49E2,7E1,4.51E2,4.97E2,5.59E2,3.84E2,3.43E2,2.99E2,2.29E2,3.55E2,3.38E2,2.4E2,1.69E2,1.36E2,6.7E1,8.2E1,3.12E2,1.85E2,3.04E2,2.55E2,1.75E2,2.09E2,1.37E2,2.06E2,1.91E2,1.08E2,1.37E2,9.2E1,1.65E2,1.9E2,1.86E2,1.52E2,1.38E2,1.02E2],"tree_param":{"num_deleted":"0","num_feature":"7","num_nodes":"55","size_leaf_vector":"1"}},{"base_weights":[5.800457E2,-3.804545E4,1.1685109E6,-1.10247836E5,1.4022812E5,8.5946306E5,1.9119174E6,-1.5953308E5,-5.209422E4,8.6778555E4,3.2638634E5,1.9798664E5,3.1609362E5,4.6721447E5,6.475581E5,-1.8549762E5,-1.3157412E5,-8.279728E4,-1.9803533E4,5.3157297E4,1.4132356E5,2.6459966E5,4.2246322E5,-6.1572746E4,-1.7454214E5,-4.4211516E4,-1.216697E5,-9.464581E4,-6.80338E4,-3.5857062E4,-1.1053724E3,3.615736E4,7.779099E4,1.21122164E5,5.1839215E4,7.019223E4,9.081405E4,1.1523618E5,1.4526545E5,-5.428719E4,-4.9249902E4,-3.8614254E4,-3.461496E4,-2.921317E4,-2.5480373E4,-2.2175666E4,-1.8019615E4,-1.3179741E4,-7.957704E3,-1.9408003E3,2.5449001E3,7.3014644E3,1.435099E4,2.0887121E4,2.6932873E4,3.3629855E4,3.9863688E4],"categories":[],"categories_nodes":[],"categories_segments":[],"categories_sizes":[],"default_left":[0,0,0,0,0,0,0,0,0,0,0,0,0,0,0,0,0,0,0,0,0,0,0,0,0,0,0,0,0,0,0,0,0,0,0,0,0,0,0,0,0,0,0,0,0,0,0,0,0,0,0,0,0,0,0,0,0],"id":1,"left_children":[1,3,5,7,9,11,13,15,17,19,21,-1,-1,-1,-1,23,25,27,29,31,33,35,37,-1,39,-1,41,43,45,47,49,51,53,55,-1,-1,-1,-1,-1,-1,-1,-1,-1,-1,-1,-1,-1,-1,-1,-1,-1,-1,-1,-1,-1,-1,-1],"loss_changes":[1.9587522E14,5.411554E13,3.0291767E13,8.567109E12,1.2031172E13,3.1787288E12,1.3564379E11,1.1508919E12,1.3605753E12,1.7218284E12,1.49101E12,0E0,0E0,0E0,0E0,1.4523197E11,1.04581825E11,1.1670808E11,2.0137548E11,2.4216837E11,2.0732812E11,1.2410526E11,6.025747E10,0E0,6.56828E9,0E0,6.7145564E9,2.0213924E9,1.0425598E10,2.6037682E10,1.6050126E10,4.6873346E10,1.7046569E10,8.653373E9,0E0,0E0,0E0,0E0,0E0,0E0,0E0,0E0,0E0,0E0,0E0,0E0,0E0,0E0,0E0,0E0,0E0,0E0,0E0,0E0,0E0,0E0,0E0],"parents":[2147483647,0,0,1,1,2,2,3,3,4,4,5,5,6,6,7,7,8,8,9,9,10,10,15,15,16,16,17,17,18,18,19,19,20,20,21,21,22,22,24,24,26,26,27,27,28,28,29,29,30,30,31,31,32,32,33,33],"right_children":[2,4,6,8,10,12,14,16,18,20,22,-1,-1,-1,-1,24,26,28,30,32,34,36,38,-1,40,-1,42,44,46,48,50,52,54,56,-1,-1,-1,-1,-1,-1,-1,-1,-1,-1,-1,-1,-1,-1,-1,-1,-1,-1,-1,-1,-1,-1,-1],"split_conditions":[1.139E6,3.618E5,2.546E6,1.876E5,6.365E5,1.675E6,3.015E6,1.139E5,2.6465E5,4.7637E5,8.375E5,1.9798664E5,3.1609362E5,4.6721447E5,6.475581E5,6.365E4,1.4405E5,2.211E5,3.149E5,4.221E5,5.5275E5,7.37E5,9.983E5,-6.1572746E4,9.38E4,-4.4211516E4,1.6415E5,2.1105E5,2.412E5,2.881E5,3.4169934E5,3.953E5,4.556E5,5.226E5,5.1839215E4,7.019223E4,9.081405E4,1.1523618E5,1.4526545E5,-5.428719E4,-4.9249902E4,-3.8614254E4,-3.461496E4,-2.921317E4,-2.5480373E4,-2.2175666E4,-1.8019615E4,-1.3179741E4,-7.957704E3,-1.9408003E3,2.5449001E3,7.3014644E3,1.435099E4,2.0887121E4,2.6932873E4,3.3629855E4,3.9863688E4],"split_indices":[1,1,1,1,1,1,1,1,1,1,1,0,0,0,0,1,1,1,1,1,1,1,1,0,1,0,1,1,1,1,1,1,1,1,0,0,0,0,0,0,0,0,0,0,0,0,0,0,0,0,0,0,0,0,0,0,0],"split_type":[0,0,0,0,0,0,0,0,0,0,0,0,0,0,0,0,0,0,0,0,0,0,0,0,0,0,0,0,0,0,0,0,0,0,0,0,0,0,0,0,0,0,0,0,0,0,0,0,0,0,0,0,0,0,0,0,0],"sum_hessian":[4.34E3,4.202E3,1.38E2,2.991E3,1.211E3,9.9E1,3.9E1,1.618E3,1.373E3,9.42E2,2.69E2,5.1E1,4.8E1,1.9E1,2E1,8.36E2,7.82E2,7.03E2,6.7E2,5.84E2,3.58E2,1.66E2,1.03E2,2.92E2,5.44E2,2.96E2,4.86E2,3.87E2,3.16E2,3.6E2,3.1E2,3.47E2,2.37E2,2.21E2,1.37E2,9.6E1,7E1,6.8E1,3.5E1,3.26E2,2.18E2,2.2E2,2.66E2,2.95E2,9.2E1,1.77E2,1.39E2,1.91E2,1.69E2,1.99E2,1.11E2,1.74E2,1.73E2,1.45E2,9.2E1,1.31E2,9E1],"tree_param":{"num_deleted":"0","num_feature":"7","num_nodes":"57","size_leaf_vector":"1"}},{"base_weights":[8.3155475E2,-2.2955498E4,9.7014594E5,-7.274297E4,1.2036961E5,7.11488E5,1.3662114E6,-1.0947292E5,-2.8192598E4,7.814235E4,2.8201956E5,1.883019E5,2.686403E5,1.7902415E6,3.612777E5,-1.2868199E5,-8.828694E4,-5.1631742E4,-3.496968E3,5.378905E4,1.2599753E5,2.3691719E5,1.13143695E5,7.63969E5,3.6310647E5,-1.4100894E5,-1.1905979E5,-9.697551E4,-7.9384086E4,-6.3011066E4,-4.23446E4,-1.8236848E4,7.318547E3,4.0470684E4,7.4596695E4,1.087138E5,4.7138074E4,6.388301E4,8.384702E4,-4.5399156E4,-4.0305562E4,-3.7206188E4,-3.397765E4,-3.0915121E4,-2.7486299E4,-2.500825E4,-2.1915232E4,-1.9705648E4,-1.7455533E4,-1.4356647E4,-1.035706E4,-7.3914746E3,-4.3809746E3,3.6641022E2,4.5797686E3,9.944531E3,1.5166832E4,1.9786354E4,2.4707129E4,2.8969191E4,3.5708746E4],"categories":[],"categories_nodes":[],"categories_segments":[],"categories_sizes":[],"default_left":[0,0,0,0,0,0,0,0,0,0,0,0,0,0,0,0,0,0,0,0,0,0,0,0,0,0,0,0,0,0,0,0,0,0,0,0,0,0,0,0,0,0,0,0,0,0,0,0,0,0,0,0,0,0,0,0,0,0,0,0,0],"id":2,"left_children":[1,3,5,7,9,11,13,15,17,19,21,-1,-1,23,-1,25,27,29,31,33,35,37,-1,-1,-1,39,41,43,45,47,49,51,53,55,57,59,-1,-1,-1,-1,-1,-1,-1,-1,-1,-1,-1,-1,-1,-1,-1,-1,-1,-1,-1,-1,-1,-1,-1,-1,-1],"loss_changes":[1.0011328E14,3.0250254E13,9.682282E12,5.144816E12,7.4388173E12,4.4025512E11,5.909942E11,6.90244E11,8.23515E11,1.0048168E12,8.8028165E11,0E0,0E0,8.649808E11,0E0,9.019851E10,5.5963025E10,7.447917E10,1.1077052E11,1.5688152E11,1.400237E11,9.970437E10,0E0,0E0,0E0,6.466568E9,7.167017E8,3.9602094E9,4.287103E9,3.857449E8,1.580381E10,6.478676E9,1.9412376E10,2.4466293E10,9.591194E9,1.2443976E10,0E0,0E0,0E0,0E0,0E0,0E0,0E0,0E0,0E0,0E0,0E0,0E0,0E0,0E0,0E0,0E0,0E0,0E0,0E0,0E0,0E0,0E0,0E0,0E0,0E0],"parents":[2147483647,0,0,1,1,2,2,3,3,4,4,5,5,6,6,7,7,8,8,9,9,10,10,13,13,15,15,16,16,17,17,18,18,19,19,20,20,21,21,25,25,26,26,27,27,28,28,29,29,30,30,31,31,32,32,33,33,34,34,35,35],"right_children":[2,4,6,8,10,12,14,16,18,20,22,-1,-1,24,-1,26,28,30,32,34,36,38,-1,-1,-1,40,42,44,46,48,50,52,54,56,58,60,-1,-1,-1,-1,-1,-1,-1,-1,-1,-1,-1,-1,-1,-1,-1,-1,-1,-1,-1,-1,-1,-1,-1,-1,-1],"split_conditions":[1.3165494E6,3.886E5,2.546E6,2.01E5,7.035E5,1.876E6,2.018E3,1.206E5,2.814E5,5.293E5,9.983E5,1.883019E5,2.686403E5,1.327E4,3.612777E5,7.102E4,1.6013E5,2.3383E5,3.283E5,4.623E5,6.1975E5,8.71E5,1.13143695E5,7.63969E5,3.6310647E5,5.025E4,9.715E4,1.407E5,1.8023E5,2.144E5,2.5795E5,3.015E5,3.5845E5,4.288E5,4.891E5,5.5945E5,4.7138074E4,6.388301E4,8.384702E4,-4.5399156E4,-4.0305562E4,-3.7206188E4,-3.397765E4,-3.0915121E4,-2.7486299E4,-2.500825E4,-2.1915232E4,-1.9705648E4,-1.7455533E4,-1.4356647E4,-1.035706E4,-7.3914746E3,-4.3809746E3,3.6641022E2,4.5797686E3,9.944531E3,1.5166832E4,1.9786354E4,2.4707129E4,2.8969191E4,3.5708746E4],"split_indices":[1,1,1,1,1,1,0,1,1,1,1,0,0,2,0,1,1,1,1,1,1,1,0,0,0,1,1,1,1,1,1,1,1,1,1,1,0,0,0,0,0,0,0,0,0,0,0,0,0,0,0,0,0,0,0,0,0,0,0,0,0],"split_type":[0,0,0,0,0,0,0,0,0,0,0,0,0,0,0,0,0,0,0,0,0,0,0,0,0,0,0,0,0,0,0,0,0,0,0,0,0,0,0,0,0,0,0,0,0,0,0,0,0,0,0,0,0,0,0,0,0,0,0,0,0],"sum_hessian":[4.34E3,4.237E3,1.03E2,3.145E3,1.092E3,6.4E1,3.9E1,1.723E3,1.422E3,8.67E2,2.25E2,4.7E1,1.7E1,8E0,3.1E1,9.01E2,8.22E2,7.29E2,6.93E2,5.76E2,2.91E2,1.55E2,7E1,2E0,6E0,3.89E2,5.12E2,4.11E2,4.11E2,3.25E2,4.04E2,2.93E2,4E2,3.53E2,2.23E2,1.9E2,1.01E2,1.03E2,5.2E1,1.44E2,2.45E2,2.65E2,2.47E2,1.84E2,2.27E2,2.45E2,1.66E2,2.01E2,1.24E2,2.34E2,1.7E2,1.04E2,1.89E2,2.27E2,1.73E2,2.07E2,1.46E2,1.1E2,1.13E2,9.2E1,9.8E1],"tree_param":{"num_deleted":"0","num_feature":"7","num_nodes":"61","size_leaf_vector":"1"}},{"base_weights":[1.0558688E3,-1.6042566E4,6.9780694E5,-5.130967E4,8.387415E4,5.0507153E5,9.935568E5,-7.698907E4,-2.0357184E4,5.7312418E4,2.1326966E5,1.3298822E5,1.9252556E5,1.3783996E6,2.5628134E5,-8.901706E4,-6.0530914E4,-3.6407727E4,-2.8390347E3,3.7851156E4,9.4150984E4,1.8268875E5,8.462728E4,6.111752E5,2.6973622E5,-3.0739646E4,-8.4041164E4,-1.9591508E4,-5.5039594E4,-4.208214E4,-2.639027E4,-1.3685551E4,4.23252E3,2.583765E4,5.030649E4,7.751793E4,1.1462622E5,4.902039E4,5.9616695E4,-2.680096E4,-2.3743623E4,-1.735074E4,-1.5540569E4,-1.3734603E4,-1.1257018E4,-8.90168E3,-7.1112383E3,-5.1951523E3,-3.387473E3,-5.0304736E2,2.6014902E3,6.101957E3,9.288942E3,1.3351241E4,1.777741E4,2.090932E4,2.541715E4,2.9354305E4,3.7299535E4],"categories":[],"categories_nodes":[],"categories_segments":[],"categories_sizes":[],"default_left":[0,0,0,0,0,0,0,0,0,0,0,0,0,0,0,0,0,0,0,0,0,0,0,0,0,0,0,0,0,0,0,0,0,0,0,0,0,0,0,0,0,0,0,0,0,0,0,0,0,0,0,0,0,0,0,0,0,0,0],"id":3,"left_children":[1,3,5,7,9,11,13,15,17,19,21,-1,-1,23,-1,25,27,29,31,33,35,37,-1,-1,-1,-1,39,-1,41,43,45,47,49,51,53,55,57,-1,-1,-1,-1,-1,-1,-1,-1,-1,-1,-1,-1,-1,-1,-1,-1,-1,-1,-1,-1,-1,-1],"loss_changes":[5.172706E13,1.4938055E13,5.426339E12,2.4886693E12,3.7890645E12,2.6435964E11,9.6659413E11,3.3351742E11,3.9972864E11,6.5529E11,3.4413268E11,0E0,0E0,1.0102254E12,0E0,5.7436275E10,1.5438447E10,4.1067086E10,5.229181E10,8.892842E10,9.907392E10,8.658616E9,0E0,0E0,0E0,0E0,1.1751391E10,0E0,1.1835802E8,6.2432215E9,1.6857498E9,2.1431501E9,1.0848461E10,8.077492E9,1.2685083E10,4.1254912E9,1.0632823E10,0E0,0E0,0E0,0E0,0E0,0E0,0E0,0E0,0E0,0E0,0E0,0E0,0E0,0E0,0E0,0E0,0E0,0E0,0E0,0E0,0E0,0E0],"parents":[2147483647,0,0,1,1,2,2,3,3,4,4,5,5,6,6,7,7,8,8,9,9,10,10,13,13,15,15,16,16,17,17,18,18,19,19,20,20,21,21,26,26,28,28,29,29,30,30,31,31,32,32,33,33,34,34,35,35,36,36],"right_children":[2,4,6,8,10,12,14,16,18,20,22,-1,-1,24,-1,26,28,30,32,34,36,38,-1,-1,-1,-1,40,-1,42,44,46,48,50,52,54,56,58,-1,-1,-1,-1,-1,-1,-1,-1,-1,-1,-1,-1,-1,-1,-1,-1,-1,-1,-1,-1,-1,-1],"split_conditions":[1.3165494E6,3.8525E5,2.546E6,1.9765E5,7.5375E5,1.876E6,2.018E3,1.3065E5,2.814E5,5.36E5,1.0586E6,1.3298822E5,1.9252556E5,1.327E4,2.5628134E5,6.03E4,1.675E5,2.412E5,3.216E5,4.3885E5,6.1975E5,8.71E5,8.462728E4,6.111752E5,2.6973622E5,-3.0739646E4,9.045E4,-1.9591508E4,1.7621E5,2.1775E5,2.613E5,3.015E5,3.4505E5,4.087E5,5.025E5,5.695E5,6.7E5,4.902039E4,5.9616695E4,-2.680096E4,-2.3743623E4,-1.735074E4,-1.5540569E4,-1.3734603E4,-1.1257018E4,-8.90168E3,-7.1112383E3,-5.1951523E3,-3.387473E3,-5.0304736E2,2.6014902E3,6.101957E3,9.288942E3,1.3351241E4,1.777741E4,2.090932E4,2.541715E4,2.9354305E4,3.7299535E4],"split_indices":[1,1,1,1,1,1,0,1,1,1,1,0,0,2,0,1,1,1,1,1,1,1,0,0,0,0,1,0,1,1,1,1,1,1,1,1,1,0,0,0,0,0,0,0,0,0,0,0,0,0,0,0,0,0,0,0,0,0,0],"split_type":[0,0,0,0,0,0,0,0,0,0,0,0,0,0,0,0,0,0,0,0,0,0,0,0,0,0,0,0,0,0,0,0,0,0,0,0,0,0,0,0,0,0,0,0,0,0,0,0,0,0,0,0,0,0,0,0,0,0,0],"sum_hessian":[4.34E3,4.237E3,1.03E2,3.132E3,1.105E3,6.4E1,3.9E1,1.711E3,1.421E3,9.18E2,1.87E2,4.7E1,1.7E1,8E0,3.1E1,9.86E2,7.25E2,7.41E2,6.8E2,6.02E2,3.16E2,1.32E2,5.5E1,2E0,6E0,2.61E2,7.25E2,3.82E2,3.43E2,4.71E2,2.7E2,2.68E2,4.12E2,3.08E2,2.94E2,1.77E2,1.39E2,6.5E1,6.7E1,3.4E2,3.85E2,1.75E2,1.68E2,2.55E2,2.16E2,1.17E2,1.53E2,1.04E2,1.64E2,1.77E2,2.35E2,1.51E2,1.57E2,1.82E2,1.12E2,9E1,8.7E1,5.5E1,8.4E1],"tree_param":{"num_deleted":"0","num_feature":"7","num_nodes":"59","size_leaf_vector":"1"}},{"base_weights":[1.1155693E3,-1.1189326E4,5.0252934E5,-3.525954E4,6.1191145E4,4.0216744E5,8.80047E5,-5.1968945E4,-1.0725079E4,4.1883676E4,1.5031677E5,9.392292E4,1.5206269E5,1.3079812E6,2.1072495E5,-6.2160273E4,-4.022813E4,-2.147357E4,7.45675E2,2.9903312E4,7.07072E4,1.2869895E5,5.969245E4,4.5372406E5,7.3537875E4,-6.75048E4,-1.6691254E4,-4.3838434E4,-1.0376637E4,-2.725534E4,-1.6362325E4,-4.7525107E3,6.679777E3,2.0986398E4,4.0353004E4,6.1960812E4,2.624131E4,3.3295965E4,4.1312977E4,-2.4045215E4,-1.9507844E4,-1.4186237E4,-1.2548319E4,-8.794834E3,-7.4892183E3,-5.5305547E3,-3.8115266E3,-2.5477476E3,-5.5211774E2,8.34941E2,2.8408364E3,5.1403486E3,7.653349E3,1.0293765E4,1.3165428E4,1.6648541E4,2.0399025E4],"categories":[],"categories_nodes":[],"categories_segments":[],"categories_sizes":[],"default_left":[0,0,0,0,0,0,0,0,0,0,0,0,0,0,0,0,0,0,0,0,0,0,0,0,0,0,0,0,0,0,0,0,0,0,0,0,0,0,0,0,0,0,0,0,0,0,0,0,0,0,0,0,0,0,0,0,0],"id":4,"left_children":[1,3,5,7,9,11,13,15,17,19,21,-1,-1,23,-1,25,27,29,31,33,35,37,-1,-1,-1,39,-1,41,-1,43,45,47,49,51,53,55,-1,-1,-1,-1,-1,-1,-1,-1,-1,-1,-1,-1,-1,-1,-1,-1,-1,-1,-1,-1,-1],"loss_changes":[2.6788917E13,7.385658E12,3.5864676E12,1.3035137E12,1.8143005E12,6.2490935E11,6.7754997E11,2.2388566E11,1.5906436E11,2.9865607E11,1.7214551E11,0E0,0E0,7.156767E11,0E0,3.1489E10,1.6440885E10,1.9235734E10,2.0423492E10,5.66446E10,3.1968985E10,5.943853E9,0E0,0E0,0E0,1.2059148E10,0E0,1.7253007E9,0E0,7.3662464E8,2.4645878E9,3.524032E9,3.2456274E9,5.4015754E9,4.531552E9,2.9000335E9,0E0,0E0,0E0,0E0,0E0,0E0,0E0,0E0,0E0,0E0,0E0,0E0,0E0,0E0,0E0,0E0,0E0,0E0,0E0,0E0,0E0],"parents":[2147483647,0,0,1,1,2,2,3,3,4,4,5,5,6,6,7,7,8,8,9,9,10,10,13,13,15,15,16,16,17,17,18,18,19,19,20,20,21,21,25,25,27,27,29,29,30,30,31,31,32,32,33,33,34,34,35,35],"right_children":[2,4,6,8,10,12,14,16,18,20,22,-1,-1,24,-1,26,28,30,32,34,36,38,-1,-1,-1,40,-1,42,-1,44,46,48,50,52,54,56,-1,-1,-1,-1,-1,-1,-1,-1,-1,-1,-1,-1,-1,-1,-1,-1,-1,-1,-1,-1,-1],"split_conditions":[1.3165494E6,4.02E5,3.015E6,2.077E5,7.5375E5,1.876E6,2.018E3,1.34E5,3.015E5,5.5275E5,1.0586E6,9.392292E4,1.5206269E5,7.8413E4,2.1072495E5,8.71E4,1.7621E5,2.4455E5,3.4169934E5,4.69E5,6.7E5,8.375E5,5.969245E4,4.5372406E5,7.3537875E4,4.355E4,-1.6691254E4,1.5075E5,-1.0376637E4,2.3383E5,2.7469934E5,3.1825E5,3.685E5,4.355E5,5.025E5,6.03E5,2.624131E4,3.3295965E4,4.1312977E4,-2.4045215E4,-1.9507844E4,-1.4186237E4,-1.2548319E4,-8.794834E3,-7.4892183E3,-5.5305547E3,-3.8115266E3,-2.5477476E3,-5.5211774E2,8.34941E2,2.8408364E3,5.1403486E3,7.653349E3,1.0293765E4,1.3165428E4,1.6648541E4,2.0399025E4],"split_indices":[1,1,1,1,1,1,0,1,1,1,1,0,0,2,0,1,1,1,1,1,1,1,0,0,0,1,0,1,0,1,1,1,1,1,1,1,0,0,0,0,0,0,0,0,0,0,0,0,0,0,0,0,0,0,0,0,0],"split_type":[0,0,0,0,0,0,0,0,0,0,0,0,0,0,0,0,0,0,0,0,0,0,0,0,0,0,0,0,0,0,0,0,0,0,0,0,0,0,0,0,0,0,0,0,0,0,0,0,0,0,0,0,0,0,0,0,0],"sum_hessian":[4.34E3,4.237E3,1.03E2,3.18E3,1.057E3,8.3E1,2E1,1.891E3,1.289E3,8.7E2,1.87E2,4.7E1,3.6E1,4E0,1.6E1,1.01E3,8.81E2,6.65E2,6.24E2,6.16E2,2.54E2,1.32E2,5.5E1,3E0,1E0,5.5E2,4.6E2,5.33E2,3.48E2,3.1E2,3.55E2,3.24E2,3E2,3.34E2,2.82E2,1.7E2,8.4E1,4.9E1,8.3E1,8.5E1,4.65E2,1.88E2,3.45E2,1.57E2,1.53E2,2.24E2,1.31E2,1.41E2,1.83E2,1.26E2,1.74E2,1.83E2,1.51E2,1.08E2,1.74E2,8.7E1,8.3E1],"tree_param":{"num_deleted":"0","num_feature":"7","num_nodes":"57","size_leaf_vector":"1"}},{"base_weights":[1.0332397E3,-7.8062334E3,3.6123184E5,-2.4881727E4,4.2584094E4,2.8444566E5,6.5117506E5,-3.788846E4,-9.560484E3,2.9093393E4,1.0593609E5,2.2111025E5,3.5892275E5,1.0210393E6,5.0408706E5,-4.5271367E4,-3.0986676E4,-1.7592797E4,-6.786249E2,1.9181986E4,4.6823387E4,9.065023E4,4.2104496E4,1.5463223E5,7.241521E4,3.1122344E5,1.4787895E5,3.9819538E5,1.12324305E5,5.896225E4,1.5959716E5,-5.302695E4,-4.3024805E4,-1.0549078E4,-2.8559947E4,-2.0386475E4,-1.25224E4,-5.6667446E3,3.2672234E3,1.4210439E4,2.6107363E4,3.931907E4,5.8186406E4,2.41166E4,2.9783068E4,1.7489338E4,4.974895E4,3.2253102E4,9.658042E4,-1.8124957E4,-1.50859795E4,-1.364738E4,-1.2516257E4,-8.823116E3,-7.5333447E3,-6.602975E3,-5.355584E3,-4.257368E3,-3.261348E3,-2.200395E3,-9.0611084E2,3.188059E2,1.9164806E3,3.5469175E3,5.279776E3,6.988511E3,8.507943E3,1.0477714E4,1.283556E4,1.4882601E4,1.8461533E4],"categories":[],"categories_nodes":[],"categories_segments":[],"categories_sizes":[],"default_left":[0,0,0,0,0,0,0,0,0,0,0,0,0,0,0,0,0,0,0,0,0,0,0,0,0,0,0,0,0,0,0,0,0,0,0,0,0,0,0,0,0,0,0,0,0,0,0,0,0,0,0,0,0,0,0,0,0,0,0,0,0,0,0,0,0,0,0,0,0,0,0],"id":5,"left_children":[1,3,5,7,9,11,13,15,17,19,21,23,25,27,29,31,33,35,37,39,41,43,-1,45,-1,47,-1,-1,-1,-1,-1,49,51,-1,53,55,57,59,61,63,65,67,69,-1,-1,-1,-1,-1,-1,-1,-1,-1,-1,-1,-1,-1,-1,-1,-1,-1,-1,-1,-1,-1,-1,-1,-1,-1,-1,-1,-1],"loss_changes":[1.3824414E13,3.6476032E12,2.1301937E12,6.3055607E11,9.1397135E11,3.168697E11,6.277625E11,8.583224E10,1.0379048E11,1.5479793E11,8.616922E10,2.7366785E10,8.3094405E10,4.9326955E11,4.132936E10,1.2092965E10,7.9967027E9,1.0566795E10,1.3638709E10,1.9254018E10,2.4743313E10,3.7928305E9,0E0,5.4344745E9,0E0,3.084963E10,0E0,0E0,0E0,0E0,0E0,6.270812E8,1.7642291E8,0E0,9.244836E8,1.6273736E9,6.007685E8,1.3285007E9,2.6559496E9,2.4941117E9,8.4066304E8,1.4599127E9,5.125243E8,0E0,0E0,0E0,0E0,0E0,0E0,0E0,0E0,0E0,0E0,0E0,0E0,0E0,0E0,0E0,0E0,0E0,0E0,0E0,0E0,0E0,0E0,0E0,0E0,0E0,0E0,0E0,0E0],"parents":[2147483647,0,0,1,1,2,2,3,3,4,4,5,5,6,6,7,7,8,8,9,9,10,10,11,11,12,12,13,13,14,14,15,15,16,16,17,17,18,18,19,19,20,20,21,21,23,23,25,25,31,31,32,32,34,34,35,35,36,36,37,37,38,38,39,39,40,40,41,41,42,42],"right_children":[2,4,6,8,10,12,14,16,18,20,22,24,26,28,30,32,34,36,38,40,42,44,-1,46,-1,48,-1,-1,-1,-1,-1,50,52,-1,54,56,58,60,62,64,66,68,70,-1,-1,-1,-1,-1,-1,-1,-1,-1,-1,-1,-1,-1,-1,-1,-1,-1,-1,-1,-1,-1,-1,-1,-1,-1,-1,-1,-1],"split_conditions":[1.3165494E6,3.953E5,3.015E6,1.9765E5,7.5375E5,1.876E6,2.018E3,1.1055E5,2.8475E5,5.36E5,1.0586E6,2.015E3,4.96E4,1.327E4,1E0,5.36E4,1.474E5,2.4455E5,3.35E5,4.623E5,6.298E5,8.71E5,4.2104496E4,2.8245E4,7.241521E4,2.014E3,1.4787895E5,3.9819538E5,1.12324305E5,5.896225E4,1.5959716E5,3.685E4,7.37E4,-1.0549078E4,1.8425E5,2.211E5,2.68E5,3.0485E5,3.685E5,4.355E5,4.891E5,5.695E5,6.7E5,2.41166E4,2.9783068E4,1.7489338E4,4.974895E4,3.2253102E4,9.658042E4,-1.8124957E4,-1.50859795E4,-1.364738E4,-1.2516257E4,-8.823116E3,-7.5333447E3,-6.602975E3,-5.355584E3,-4.257368E3,-3.261348E3,-2.200395E3,-9.0611084E2,3.188059E2,1.9164806E3,3.5469175E3,5.279776E3,6.988511E3,8.507943E3,1.0477714E4,1.283556E4,1.4882601E4,1.8461533E4],"split_indices":[1,1,1,1,1,1,0,1,1,1,1,0,2,2,3,1,1,1,1,1,1,1,0,2,0,0,0,0,0,0,0,1,1,0,1,1,1,1,1,1,1,1,1,0,0,0,0,0,0,0,0,0,0,0,0,0,0,0,0,0,0,0,0,0,0,0,0,0,0,0,0],"split_type":[0,0,0,0,0,0,0,0,0,0,0,0,0,0,0,0,0,0,0,0,0,0,0,0,0,0,0,0,0,0,0,0,0,0,0,0,0,0,0,0,0,0,0,0,0,0,0,0,0,0,0,0,0,0,0,0,0,0,0,0,0,0,0,0,0,0,0,0,0,0,0],"sum_hessian":[4.34E3,4.237E3,1.03E2,3.165E3,1.072E3,8.3E1,2E1,1.711E3,1.454E3,8.85E2,1.87E2,4.7E1,3.6E1,4E0,1.6E1,8.24E2,8.87E2,7.63E2,6.91E2,5.69E2,3.16E2,1.32E2,5.5E1,1.3E1,3.4E1,2.9E1,7E0,2E0,2E0,2E0,1.4E1,1.8E2,6.44E2,3.21E2,5.66E2,4.9E2,2.73E2,3.05E2,3.86E2,3.33E2,2.36E2,1.93E2,1.23E2,6.5E1,6.7E1,2E0,1.1E1,2E0,2.7E1,4.3E1,1.37E2,2.11E2,4.33E2,4.48E2,1.18E2,2.94E2,1.96E2,1.32E2,1.41E2,1.86E2,1.19E2,2.27E2,1.59E2,1.98E2,1.35E2,1.1E2,1.26E2,9E1,1.03E2,3.9E1,8.4E1],"tree_param":{"num_deleted":"0","num_feature":"7","num_nodes":"71","size_leaf_vector":"1"}},{"base_weights":[1.0033401E3,-4.691725E3,3.005795E5,-1.6575643E4,3.521776E4,2.3025555E5,4.9054056E5,-2.5164473E4,-3.7449866E3,2.3368057E4,8.488742E4,3.483236E5,2.0312217E5,8.168315E5,3.6571728E5,-3.1521191E4,-2.0083979E4,-9.185189E3,2.3202156E3,1.7850303E4,4.037203E4,6.8598164E4,1.1934025E5,5.1061035E4,1.2010381E5,6.498168E4,4.2038082E4,3.185563E5,8.985945E4,4.7169805E4,1.1490992E5,-3.6463508E4,-2.9629916E4,-2.3438385E4,-1.7693248E4,-1.2088134E4,-6.481409E3,-2.4407321E2,5.512618E3,1.423106E4,2.4788393E4,1.0246294E4,1.348481E4,1.8741057E4,2.2819762E4,3.616372E4,7.41345E3,-1.2530252E4,-1.0353468E4,-9.164757E3,-8.237309E3,-7.429395E3,-6.64417E3,-5.789785E3,-4.756858E3,-3.8136038E3,-3.0598967E3,-2.3590334E3,-1.5438033E3,-3.974379E2,4.9154138E2,1.2043496E3,2.0184209E3,3.5338618E3,5.277539E3,6.9755327E3,8.237352E3],"categories":[],"categories_nodes":[],"categories_segments":[],"categories_sizes":[],"default_left":[0,0,0,0,0,0,0,0,0,0,0,0,0,0,0,0,0,0,0,0,0,0,0,0,0,0,0,0,0,0,0,0,0,0,0,0,0,0,0,0,0,0,0,0,0,0,0,0,0,0,0,0,0,0,0,0,0,0,0,0,0,0,0,0,0,0,0],"id":6,"left_children":[1,3,5,7,9,11,13,15,17,19,21,23,25,27,29,31,33,35,37,39,41,43,45,-1,-1,-1,-1,-1,-1,-1,-1,47,49,51,53,55,57,59,61,63,65,-1,-1,-1,-1,-1,-1,-1,-1,-1,-1,-1,-1,-1,-1,-1,-1,-1,-1,-1,-1,-1,-1,-1,-1,-1,-1],"loss_changes":[7.407616E12,2.0214951E12,9.691144E11,3.618036E11,5.736386E11,1.2466677E11,5.565731E11,6.2891753E10,4.3509953E10,7.349394E10,9.732109E10,2.452213E10,1.3816037E10,3.1569268E11,1.1458314E9,7.070417E9,8.3746816E9,5.3766513E9,5.1095603E9,1.4688502E10,3.9576535E9,1.1972116E9,3.7514117E9,0E0,0E0,0E0,0E0,0E0,0E0,0E0,0E0,1.0122363E9,4.3122688E8,2.272297E8,1.5940321E9,2.6385203E8,6.276301E8,7.081431E8,4.791977E8,3.0553866E9,1.983447E8,0E0,0E0,0E0,0E0,0E0,0E0,0E0,0E0,0E0,0E0,0E0,0E0,0E0,0E0,0E0,0E0,0E0,0E0,0E0,0E0,0E0,0E0,0E0,0E0,0E0,0E0],"parents":[2147483647,0,0,1,1,2,2,3,3,4,4,5,5,6,6,7,7,8,8,9,9,10,10,11,11,12,12,13,13,14,14,15,15,16,16,17,17,18,18,19,19,20,20,21,21,22,22,31,31,32,32,33,33,34,34,35,35,36,36,37,37,38,38,39,39,40,40],"right_children":[2,4,6,8,10,12,14,16,18,20,22,24,26,28,30,32,34,36,38,40,42,44,46,-1,-1,-1,-1,-1,-1,-1,-1,48,50,52,54,56,58,60,62,64,66,-1,-1,-1,-1,-1,-1,-1,-1,-1,-1,-1,-1,-1,-1,-1,-1,-1,-1,-1,-1,-1,-1,-1,-1,-1,-1],"split_conditions":[1.742E6,4.087E5,3.015E6,2.1775E5,8.04E5,2.017E3,2.018E3,1.1725E5,3.0485E5,5.996493E5,1.139E6,2.014E3,2E0,1.327E4,1E0,5.695E4,1.608E5,2.613E5,3.685E5,5.0585E5,6.7E5,9.38E5,1.495E5,5.1061035E4,1.2010381E5,6.498168E4,4.2038082E4,3.185563E5,8.985945E4,4.7169805E4,1.1490992E5,4.02E4,1.005E5,1.407E5,1.9095E5,2.479E5,2.8475E5,3.4169934E5,3.8525E5,4.69E5,5.5945E5,1.0246294E4,1.348481E4,1.8741057E4,2.2819762E4,3.616372E4,7.41345E3,-1.2530252E4,-1.0353468E4,-9.164757E3,-8.237309E3,-7.429395E3,-6.64417E3,-5.789785E3,-4.756858E3,-3.8136038E3,-3.0598967E3,-2.3590334E3,-1.5438033E3,-3.974379E2,4.9154138E2,1.2043496E3,2.0184209E3,3.5338618E3,5.277539E3,6.9755327E3,8.237352E3],"split_indices":[1,1,1,1,1,0,0,1,1,1,1,0,4,2,3,1,1,1,1,1,1,1,2,0,0,0,0,0,0,0,0,1,1,1,1,1,1,1,1,1,1,0,0,0,0,0,0,0,0,0,0,0,0,0,0,0,0,0,0,0,0,0,0,0,0,0,0],"split_type":[0,0,0,0,0,0,0,0,0,0,0,0,0,0,0,0,0,0,0,0,0,0,0,0,0,0,0,0,0,0,0,0,0,0,0,0,0,0,0,0,0,0,0,0,0,0,0,0,0,0,0,0,0,0,0,0,0,0,0,0,0,0,0,0,0,0,0],"sum_hessian":[4.34E3,4.26E3,8E1,3.283E3,9.77E2,6E1,2E1,1.966E3,1.317E3,7.9E2,1.87E2,9E0,5.1E1,4E0,1.6E1,8.71E2,1.095E3,6.94E2,6.23E2,5.98E2,1.92E2,1.29E2,5.8E1,3E0,6E0,4E1,1.1E1,2E0,2E0,2E0,1.4E1,2.36E2,6.35E2,4.52E2,6.43E2,3.33E2,3.61E2,3.46E2,2.77E2,3.95E2,2.03E2,8.5E1,1.07E2,7.6E1,5.3E1,5.7E1,1E0,5.8E1,1.78E2,4.37E2,1.98E2,2.14E2,2.38E2,3.38E2,3.05E2,2.46E2,8.7E1,1.75E2,1.86E2,2.2E2,1.26E2,1.26E2,1.51E2,2.31E2,1.64E2,1.35E2,6.8E1],"tree_param":{"num_deleted":"0","num_feature":"7","num_nodes":"67","size_leaf_vector":"1"}},{"base_weights":[9.1178424E2,-3.2700027E3,2.2088317E5,-1.1184232E4,2.6381156E4,1.6573928E5,3.7054475E5,-1.7419715E4,-1.7059559E3,1.7487982E4,5.9874055E4,2.6094303E5,1.4424358E5,6.534651E5,2.6553616E5,-2.2111031E4,-1.3872005E4,-5.7578203E3,2.6568516E3,1.340263E4,2.838337E4,4.833841E4,8.427676E4,1.3190769E5,8.9219984E4,4.5962656E4,3.04776E4,2.2895961E5,3.2179613E4,4.8713527E4,8.84961E4,-2.6308553E4,-2.0981174E4,-1.6266123E4,-1.204728E4,-7.9158477E3,-4.0410312E3,9.795822E2,5.3487393E3,1.0762568E4,1.7426438E4,7.208143E3,3.1589408E4,1.3191755E4,5.3668703E4,9.7081516E4,6.9579516E4,5.5759203E4,1.5590275E4,-9.874258E3,-7.511691E3,-6.6385815E3,-5.958456E3,-5.2109443E3,-4.6119927E3,-3.9582683E3,-3.230602E3,-2.501769E3,-1.9714069E3,-1.4730791E3,-8.509474E2,-6.580352E0,7.4554346E2,1.3804509E3,2.0469915E3,2.69179E3,3.7038755E3,4.4037173E3,5.5100415E3,8.624852E3,1.047792E4,1.668445E4,9.797065E3,2.0896346E4,4.5087324E4,1.5416894E4,2.3508941E4],"categories":[],"categories_nodes":[],"categories_segments":[],"categories_sizes":[],"default_left":[0,0,0,0,0,0,0,0,0,0,0,0,0,0,0,0,0,0,0,0,0,0,0,0,0,0,0,0,0,0,0,0,0,0,0,0,0,0,0,0,0,0,0,0,0,0,0,0,0,0,0,0,0,0,0,0,0,0,0,0,0,0,0,0,0,0,0,0,0,0,0,0,0,0,0,0,0],"id":7,"left_children":[1,3,5,7,9,11,13,15,17,19,21,23,25,27,29,31,33,35,37,39,41,43,45,47,-1,-1,-1,-1,-1,-1,-1,49,51,53,55,57,59,61,63,65,67,-1,69,-1,71,73,75,-1,-1,-1,-1,-1,-1,-1,-1,-1,-1,-1,-1,-1,-1,-1,-1,-1,-1,-1,-1,-1,-1,-1,-1,-1,-1,-1,-1,-1,-1],"loss_changes":[3.9938926E12,1.0002073E12,6.0707334E11,1.9878812E11,2.6642953E11,8.7195255E10,4.5037178E11,3.3462813E10,2.3632445E10,3.1267275E10,4.884837E10,7.8130053E9,4.31915E9,2.1781755E11,3.7478728E9,3.583574E9,4.862886E9,2.5354916E9,2.9024338E9,5.3258404E9,1.9364577E9,6.653215E8,4.3486085E9,7.594189E9,0E0,0E0,0E0,0E0,0E0,0E0,0E0,6.9381325E8,4.4951142E8,2.2368256E8,8.272691E8,1.1938406E8,3.9231795E8,6.0017715E8,2.407598E8,7.84982E8,2.574377E8,0E0,1.937408E7,0E0,3.9195443E8,3.1853593E10,9.25909E8,0E0,0E0,0E0,0E0,0E0,0E0,0E0,0E0,0E0,0E0,0E0,0E0,0E0,0E0,0E0,0E0,0E0,0E0,0E0,0E0,0E0,0E0,0E0,0E0,0E0,0E0,0E0,0E0,0E0,0E0],"parents":[2147483647,0,0,1,1,2,2,3,3,4,4,5,5,6,6,7,7,8,8,9,9,10,10,11,11,12,12,13,13,14,14,15,15,16,16,17,17,18,18,19,19,20,20,21,21,22,22,23,23,31,31,32,32,33,33,34,34,35,35,36,36,37,37,38,38,39,39,40,40,42,42,44,44,45,45,46,46],"right_children":[2,4,6,8,10,12,14,16,18,20,22,24,26,28,30,32,34,36,38,40,42,44,46,48,-1,-1,-1,-1,-1,-1,-1,50,52,54,56,58,60,62,64,66,68,-1,70,-1,72,74,76,-1,-1,-1,-1,-1,-1,-1,-1,-1,-1,-1,-1,-1,-1,-1,-1,-1,-1,-1,-1,-1,-1,-1,-1,-1,-1,-1,-1,-1,-1],"split_conditions":[1.742E6,4.355E5,3.015E6,2.278E5,8.04E5,2.017E3,2.018E3,1.1725E5,3.216E5,5.996493E5,1.139E6,2.014E3,2E0,7.8413E4,1.327E4,5.36E4,1.675E5,2.68E5,3.752E5,5.0585E5,6.7E5,9.38E5,4.6957E4,2.011E3,8.9219984E4,4.5962656E4,3.04776E4,2.2895961E5,3.2179613E4,4.8713527E4,8.84961E4,3.35E4,8.375E4,1.407E5,1.9765E5,2.546E5,3.015E5,3.551E5,4.087E5,4.69E5,5.36E5,7.208143E3,7.37E5,1.3191755E4,2.019E3,2.8245E4,7.6E4,5.5759203E4,1.5590275E4,-9.874258E3,-7.511691E3,-6.6385815E3,-5.958456E3,-5.2109443E3,-4.6119927E3,-3.9582683E3,-3.230602E3,-2.501769E3,-1.9714069E3,-1.4730791E3,-8.509474E2,-6.580352E0,7.4554346E2,1.3804509E3,2.0469915E3,2.69179E3,3.7038755E3,4.4037173E3,5.5100415E3,8.624852E3,1.047792E4,1.668445E4,9.797065E3,2.0896346E4,4.5087324E4,1.5416894E4,2.3508941E4],"split_indices":[1,1,1,1,1,0,0,1,1,1,1,0,4,2,2,1,1,1,1,1,1,1,2,0,0,0,0,0,0,0,0,1,1,1,1,1,1,1,1,1,1,0,1,0,0,2,2,0,0,0,0,0,0,0,0,0,0,0,0,0,0,0,0,0,0,0,0,0,0,0,0,0,0,0,0,0,0],"split_type":[0,0,0,0,0,0,0,0,0,0,0,0,0,0,0,0,0,0,0,0,0,0,0,0,0,0,0,0,0,0,0,0,0,0,0,0,0,0,0,0,0,0,0,0,0,0,0,0,0,0,0,0,0,0,0,0,0,0,0,0,0,0,0,0,0,0,0,0,0,0,0,0,0,0,0,0,0],"sum_hessian":[4.34E3,4.26E3,8E1,3.363E3,8.97E2,6E1,2E1,2.028E3,1.335E3,7.1E2,1.87E2,9E0,5.1E1,4E0,1.6E1,8.71E2,1.157E3,6.92E2,6.43E2,5.18E2,1.92E2,1.29E2,5.8E1,3E0,6E0,4E1,1.1E1,3E0,1E0,5E0,1.1E1,1.8E2,6.91E2,4.97E2,6.6E2,3.05E2,3.87E2,3.97E2,2.46E2,3.15E2,2.03E2,8.5E1,1.07E2,7.6E1,5.3E1,2.8E1,3E1,1E0,2E0,2.5E1,1.55E2,3.32E2,3.59E2,2.14E2,2.83E2,3.43E2,3.17E2,2.28E2,7.7E1,2.23E2,1.64E2,2.39E2,1.58E2,1.66E2,8E1,1.51E2,1.64E2,5.6E1,1.47E2,6.3E1,4.4E1,4.7E1,6E0,2E1,8E0,1.2E1,1.8E1],"tree_param":{"num_deleted":"0","num_feature":"7","num_nodes":"77","size_leaf_vector":"1"}},{"base_weights":[8.1630536E2,-2.2567126E3,1.6246216E5,-7.543749E3,1.990522E4,1.4828648E5,1.9447733E5,-1.2155324E4,-7.222167E2,1.3711367E4,4.5016566E4,1.0042735E5,1.9602488E5,-1.5512108E4,-9.668631E3,-3.7069333E3,2.561161E3,1.0410311E4,2.188273E4,3.5645637E4,6.077183E4,5.0207707E4,1.0585683E5,8.975306E4,1.641111E5,-1.9948854E4,-1.4898477E4,-1.0872272E4,-7.755802E3,-5.005114E3,-2.108527E3,1.2458965E3,4.5771577E3,8.640563E3,1.3284835E4,5.782825E3,7.783022E3,3.89235E4,2.9427973E4,7.0039586E4,4.7193758E4,6.950108E4,-6.938869E3,4.1245613E4,8.299614E4,3.324013E4,6.1389684E4,-7.4893525E3,-5.6218457E3,-4.8225522E3,-4.2498E3,-3.4921387E3,-2.90756E3,-2.4270037E3,-2.0506626E3,-1.7160231E3,-1.270713E3,-7.689787E2,-3.8968774E2,1.5036473E2,6.6269696E2,1.0889465E3,1.5515255E3,2.1697258E3,2.9350444E3,3.557044E3,4.291381E3,9.746223E3,1.403354E4,6.142438E3,9.760143E3,1.4964291E4,2.8150434E4,1.6891398E4,8.646884E3,2.636624E4,8.3843E3,-3.5830313E2,2.8524068E4],"categories":[],"categories_nodes":[],"categories_segments":[],"categories_sizes":[],"default_left":[0,0,0,0,0,0,0,0,0,0,0,0,0,0,0,0,0,0,0,0,0,0,0,0,0,0,0,0,0,0,0,0,0,0,0,0,0,0,0,0,0,0,0,0,0,0,0,0,0,0,0,0,0,0,0,0,0,0,0,0,0,0,0,0,0,0,0,0,0,0,0,0,0,0,0,0,0,0,0],"id":8,"left_children":[1,3,5,7,9,11,-1,13,15,17,19,21,23,25,27,29,31,33,35,37,39,41,43,-1,45,47,49,51,53,55,57,59,61,63,65,-1,-1,67,69,71,73,75,-1,-1,77,-1,-1,-1,-1,-1,-1,-1,-1,-1,-1,-1,-1,-1,-1,-1,-1,-1,-1,-1,-1,-1,-1,-1,-1,-1,-1,-1,-1,-1,-1,-1,-1,-1,-1],"loss_changes":[2.1567177E12,4.9941558E11,4.6167687E11,1.0823826E11,1.2707781E11,1.6309119E11,0E0,1.6986997E10,1.3621627E10,1.7575117E10,2.175166E10,6.137184E9,7.92886E10,2.0768358E9,2.6370785E9,1.5000607E9,1.7496361E9,2.2863626E9,1.5004303E9,9.741517E8,4.1190195E9,1.0097065E10,1.5342076E10,0E0,4.645336E10,1.5695053E8,4.3594547E8,5.4277734E8,8.617984E7,1.9635917E8,1.1742003E8,2.8720595E8,1.2824371E8,4.040151E8,8.960614E7,0E0,0E0,1.7663754E9,4.461568E8,1.114882E10,2.8962447E9,1.3638349E9,0E0,0E0,2.4530321E10,0E0,0E0,0E0,0E0,0E0,0E0,0E0,0E0,0E0,0E0,0E0,0E0,0E0,0E0,0E0,0E0,0E0,0E0,0E0,0E0,0E0,0E0,0E0,0E0,0E0,0E0,0E0,0E0,0E0,0E0,0E0,0E0,0E0,0E0],"parents":[2147483647,0,0,1,1,2,2,3,3,4,4,5,5,7,7,8,8,9,9,10,10,11,11,12,12,13,13,14,14,15,15,16,16,17,17,18,18,19,19,20,20,21,21,22,22,24,24,25,25,26,26,27,27,28,28,29,29,30,30,31,31,32,32,33,33,34,34,37,37,38,38,39,39,40,40,41,41,44,44],"right_children":[2,4,6,8,10,12,-1,14,16,18,20,22,24,26,28,30,32,34,36,38,40,42,44,-1,46,48,50,52,54,56,58,60,62,64,66,-1,-1,68,70,72,74,76,-1,-1,78,-1,-1,-1,-1,-1,-1,-1,-1,-1,-1,-1,-1,-1,-1,-1,-1,-1,-1,-1,-1,-1,-1,-1,-1,-1,-1,-1,-1,-1,-1,-1,-1,-1,-1],"split_conditions":[1.742E6,4.3885E5,5.963E6,2.345E5,8.375E5,2.546E6,1.9447733E5,1.1725E5,3.35E5,6.1975E5,1.139E6,1.051E4,2.018E3,4.623E4,1.8425E5,2.814E5,4.02E5,5.36E5,7.37E5,5.85E4,1E0,9.8E3,3.6E4,8.975306E4,1.051E4,3.015E4,7.102E4,1.5745E5,2.144E5,2.546E5,3.0485E5,3.685E5,4.087E5,4.7637E5,5.5945E5,5.782825E3,7.783022E3,1E0,6E4,1.3165494E6,1.3165494E6,5.2E3,-6.938869E3,4.1245613E4,4.0219E4,3.324013E4,6.1389684E4,-7.4893525E3,-5.6218457E3,-4.8225522E3,-4.2498E3,-3.4921387E3,-2.90756E3,-2.4270037E3,-2.0506626E3,-1.7160231E3,-1.270713E3,-7.689787E2,-3.8968774E2,1.5036473E2,6.6269696E2,1.0889465E3,1.5515255E3,2.1697258E3,2.9350444E3,3.557044E3,4.291381E3,9.746223E3,1.403354E4,6.142438E3,9.760143E3,1.4964291E4,2.8150434E4,1.6891398E4,8.646884E3,2.636624E4,8.3843E3,-3.5830313E2,2.8524068E4],"split_indices":[1,1,1,1,1,1,0,1,1,1,1,2,0,1,1,1,1,1,1,2,4,2,2,0,2,1,1,1,1,1,1,1,1,1,1,0,0,4,2,1,1,2,0,0,2,0,0,0,0,0,0,0,0,0,0,0,0,0,0,0,0,0,0,0,0,0,0,0,0,0,0,0,0,0,0,0,0,0,0],"split_type":[0,0,0,0,0,0,0,0,0,0,0,0,0,0,0,0,0,0,0,0,0,0,0,0,0,0,0,0,0,0,0,0,0,0,0,0,0,0,0,0,0,0,0,0,0,0,0,0,0,0,0,0,0,0,0,0,0,0,0,0,0,0,0,0,0,0,0,0,0,0,0,0,0,0,0,0,0,0,0],"sum_hessian":[4.34E3,4.26E3,8E1,3.44E3,8.2E2,7.9E1,1E0,2.052E3,1.388E3,6.59E2,1.61E2,4.1E1,3.8E1,8.71E2,1.181E3,7.27E2,6.61E2,4.71E2,1.88E2,1.03E2,5.8E1,5E0,3.6E1,7E0,3.1E1,1.02E2,7.69E2,7.22E2,4.59E2,4E2,3.27E2,4.01E2,2.6E2,2.94E2,1.77E2,1.18E2,7E1,6.4E1,3.9E1,3.2E1,2.6E1,4E0,1E0,1.3E1,2.3E1,1.5E1,1.6E1,1.6E1,8.6E1,2.87E2,4.82E2,4.32E2,2.9E2,3.31E2,1.28E2,2.04E2,1.96E2,2.08E2,1.19E2,2.27E2,1.74E2,1.03E2,1.57E2,1.35E2,1.59E2,7.9E1,9.8E1,3.8E1,2.6E1,1.2E1,2.7E1,1.9E1,1.3E1,1.6E1,1E1,2E0,2E0,3E0,2E1],"tree_param":{"num_deleted":"0","num_feature":"7","num_nodes":"79","size_leaf_vector":"1"}},{"base_weights":[7.043745E2,-1.1908782E3,1.4316847E5,-4.09034E3,2.2869062E4,1.26045805E5,1.653057E5,-7.96356E3,1.9714467E3,1.6984236E4,4.9465203E4,9.861132E4,1.704973E5,-1.0463008E4,-5.7839253E3,-5.381165E2,5.2677847E3,1.2462529E4,2.3581904E4,5.7395082E4,3.5710996E4,7.523483E4,5.218403E4,2.2822406E4,1.8268512E5,-1.2825824E4,-9.79189E3,-6.927051E3,-4.5789478E3,-1.8070032E3,8.741483E2,3.8625864E3,7.4725483E3,1.0338602E4,1.4143384E4,1.9369547E4,2.6473197E4,6.749526E4,3.5128348E4,3.651904E4,1.4780438E3,8.966927E4,1.4997446E4,1.0563938E5,4.5025965E4,-5.059458E3,-3.6809917E3,-3.1775305E3,-2.6759648E3,-2.1787478E3,-1.8723749E3,-1.5566061E3,-1.1547561E3,-7.2349677E2,-3.582851E2,-3.5332428E1,3.9510376E2,8.643686E2,1.4076594E3,1.9412046E3,2.4391555E3,1.7363187E3,3.1972656E3,4.042315E3,5.2003433E3,5.9037363E3,-1.1292188E2,1.2764208E4,7.367639E3,4.592258E3,2.2183014E4,1.259928E4,4.317075E3,9.689266E3,1.9968275E4,2.010227E4,3.3107914E4,7.54415E3,-6.8851313E3],"categories":[],"categories_nodes":[],"categories_segments":[],"categories_sizes":[],"default_left":[0,0,0,0,0,0,0,0,0,0,0,0,0,0,0,0,0,0,0,0,0,0,0,0,0,0,0,0,0,0,0,0,0,0,0,0,0,0,0,0,0,0,0,0,0,0,0,0,0,0,0,0,0,0,0,0,0,0,0,0,0,0,0,0,0,0,0,0,0,0,0,0,0,0,0,0,0,0,0],"id":9,"left_children":[1,3,5,7,9,11,-1,13,15,17,19,21,23,25,27,29,31,33,35,37,39,41,-1,-1,43,45,47,49,51,53,55,57,59,61,63,65,67,69,71,73,-1,75,77,-1,-1,-1,-1,-1,-1,-1,-1,-1,-1,-1,-1,-1,-1,-1,-1,-1,-1,-1,-1,-1,-1,-1,-1,-1,-1,-1,-1,-1,-1,-1,-1,-1,-1,-1,-1],"loss_changes":[1.1722642E12,2.990189E11,3.2860524E11,8.982146E10,7.1312654E10,5.147925E10,0E0,1.2654854E10,1.2345209E10,1.101271E10,7.003095E9,5.207307E10,9.118482E9,1.5965143E9,1.6887071E9,1.521199E9,1.9694305E9,6.641705E8,1.3506396E9,9.098805E9,6.409503E8,2.4739987E10,0E0,0E0,4.1052733E10,3.2515686E8,4.9840128E8,1.0167296E8,2.518999E8,1.6272538E8,1.7674854E8,3.0888243E8,1.1218944E8,8.927232E7,3.115008E7,4.1085542E8,1.6630579E9,1.0309534E10,1.9598377E9,1.9085312E9,0E0,3.8582026E9,3.2732618E9,0E0,0E0,0E0,0E0,0E0,0E0,0E0,0E0,0E0,0E0,0E0,0E0,0E0,0E0,0E0,0E0,0E0,0E0,0E0,0E0,0E0,0E0,0E0,0E0,0E0,0E0,0E0,0E0,0E0,0E0,0E0,0E0,0E0,0E0,0E0,0E0],"parents":[2147483647,0,0,1,1,2,2,3,3,4,4,5,5,7,7,8,8,9,9,10,10,11,11,12,12,13,13,14,14,15,15,16,16,17,17,18,18,19,19,20,20,21,21,24,24,25,25,26,26,27,27,28,28,29,29,30,30,31,31,32,32,33,33,34,34,35,35,36,36,37,37,38,38,39,39,41,41,42,42],"right_children":[2,4,6,8,10,12,-1,14,16,18,20,22,24,26,28,30,32,34,36,38,40,42,-1,-1,44,46,48,50,52,54,56,58,60,62,64,66,68,70,72,74,-1,76,78,-1,-1,-1,-1,-1,-1,-1,-1,-1,-1,-1,-1,-1,-1,-1,-1,-1,-1,-1,-1,-1,-1,-1,-1,-1,-1,-1,-1,-1,-1,-1,-1,-1,-1,-1,-1],"split_conditions":[1.876E6,5.695E5,5.963E6,2.68E5,1.139E6,3.015E6,1.653057E5,1.407E5,4.02E5,7.5375E5,4.9E4,4.96E4,1E0,5.695E4,2.01E5,3.35E5,4.7637E5,6.298E5,8.71E5,2.018E3,1.495E5,3.6E4,5.218403E4,2.2822406E4,7E3,3.35E4,1.005E5,1.742E5,2.345E5,3.015E5,3.484E5,4.355E5,5.0585E5,1.051E4,1E5,3E0,1E0,2.014E3,1E0,1.31365E5,1.4780438E3,1.051E4,2.018E3,1.0563938E5,4.5025965E4,-5.059458E3,-3.6809917E3,-3.1775305E3,-2.6759648E3,-2.1787478E3,-1.8723749E3,-1.5566061E3,-1.1547561E3,-7.2349677E2,-3.582851E2,-3.5332428E1,3.9510376E2,8.643686E2,1.4076594E3,1.9412046E3,2.4391555E3,1.7363187E3,3.1972656E3,4.042315E3,5.2003433E3,5.9037363E3,-1.1292188E2,1.2764208E4,7.367639E3,4.592258E3,2.2183014E4,1.259928E4,4.317075E3,9.689266E3,1.9968275E4,2.010227E4,3.3107914E4,7.54415E3,-6.8851313E3],"split_indices":[1,1,1,1,1,1,0,1,1,1,2,2,4,1,1,1,1,1,1,0,2,2,0,0,2,1,1,1,1,1,1,1,1,2,2,6,3,0,4,2,0,2,0,0,0,0,0,0,0,0,0,0,0,0,0,0,0,0,0,0,0,0,0,0,0,0,0,0,0,0,0,0,0,0,0,0,0,0,0],"split_type":[0,0,0,0,0,0,0,0,0,0,0,0,0,0,0,0,0,0,0,0,0,0,0,0,0,0,0,0,0,0,0,0,0,0,0,0,0,0,0,0,0,0,0,0,0,0,0,0,0,0,0,0,0,0,0,0,0,0,0,0,0,0,0,0,0,0,0,0,0,0,0,0,0,0,0,0,0,0,0],"sum_hessian":[4.34E3,4.284E3,5.6E1,3.824E3,4.6E2,5.5E1,1E0,2.333E3,1.491E3,3.78E2,8.2E1,3.6E1,1.9E1,1.085E3,1.248E3,8.47E2,6.44E2,2.26E2,1.52E2,5E1,3.2E1,2.9E1,7E0,3E0,1.6E1,2.36E2,8.49E2,6.38E2,6.1E2,4.46E2,4.01E2,3.95E2,2.49E2,1.03E2,1.23E2,6.5E1,8.7E1,3.3E1,1.7E1,3.1E1,1E0,2.3E1,6E0,1E0,1.5E1,2.5E1,2.11E2,4.37E2,4.12E2,4.22E2,2.16E2,3.29E2,2.81E2,2.23E2,2.23E2,1.24E2,2.77E2,1.83E2,2.12E2,1.03E2,1.46E2,8E0,9.5E1,1.06E2,1.7E1,6.4E1,1E0,7E0,8E1,4E0,2.9E1,1.2E1,5E0,2.9E1,2E0,1.3E1,1E1,5E0,1E0],"tree_param":{"num_deleted":"0","num_feature":"7","num_nodes":"79","size_leaf_vector":"1"}},{"base_weights":[6.184612E2,-8.103917E2,1.0802226E5,-2.7186716E3,1.7628836E4,9.322386E4,1.4050988E5,-5.409121E3,1.8919364E3,1.2931361E4,3.5527188E4,1.8910578E5,8.422855E4,-7.337542E3,-3.8742715E3,1.1120395E2,4.3539624E3,9.443397E3,1.6676764E4,4.4177246E4,2.7240979E4,8.979345E4,1.5780014E4,5.4314395E4,9.93478E4,-8.73004E3,-6.744423E3,-4.6624023E3,-2.7356667E3,-7.532678E2,1.1364796E3,3.2216772E3,5.8067217E3,8.1546562E3,1.0605879E4,1.3646409E4,1.8760021E4,2.872119E4,7.288004E4,2.1716848E4,3.3657324E4,-1.8091895E4,6.352108E4,6.380358E4,3.4750617E4,-3.9461594E3,-2.536453E3,-2.1507366E3,-1.8247675E3,-1.5066882E3,-1.2102454E3,-9.6274524E2,-6.4214154E2,-3.4446494E2,-5.1532898E1,2.2894212E2,5.0817728E2,7.519116E2,1.1464976E3,1.4958816E3,1.9158247E3,5.3202227E3,2.236203E3,4.005571E3,2.554018E3,4.4220854E3,2.2486846E3,1.0972775E4,5.1738306E3,-3.7778125E3,9.759003E3,3.132074E4,1.2038466E4,1.1192002E4,4.318523E3,3.32955E3,1.0697535E4,1.543422E4,3.3229477E4,2.7197803E4,1.0705895E4],"categories":[],"categories_nodes":[],"categories_segments":[],"categories_sizes":[],"default_left":[0,0,0,0,0,0,0,0,0,0,0,0,0,0,0,0,0,0,0,0,0,0,0,0,0,0,0,0,0,0,0,0,0,0,0,0,0,0,0,0,0,0,0,0,0,0,0,0,0,0,0,0,0,0,0,0,0,0,0,0,0,0,0,0,0,0,0,0,0,0,0,0,0,0,0,0,0,0,0,0,0],"id":10,"left_children":[1,3,5,7,9,11,-1,13,15,17,19,21,23,25,27,29,31,33,35,37,39,-1,-1,41,43,45,47,49,51,53,55,57,59,61,63,65,67,69,71,73,75,-1,77,79,-1,-1,-1,-1,-1,-1,-1,-1,-1,-1,-1,-1,-1,-1,-1,-1,-1,-1,-1,-1,-1,-1,-1,-1,-1,-1,-1,-1,-1,-1,-1,-1,-1,-1,-1,-1,-1],"loss_changes":[6.6627574E11,1.5082512E11,2.6029031E11,4.8189735E10,3.3339564E10,3.2371245E10,0E0,7.232045E9,6.2777037E9,4.0229396E9,4.745691E9,4.4431065E10,1.857477E10,8.380662E8,1.214847E9,7.382759E8,9.699E8,1.6519987E8,7.0988595E8,1.5208448E10,8.640799E8,0E0,0E0,2.4936255E10,1.2534612E10,2.7958067E8,1.7171251E8,1.622057E8,1.5151078E8,1.0360875E8,7.799949E7,1.3633894E8,9.269555E7,4.3160013E8,3.74741E8,3.3357312E8,1.7427272E9,4.6582825E9,9.231933E9,2.5448858E9,4.6196326E8,0E0,5.1391693E9,6.5811374E9,0E0,0E0,0E0,0E0,0E0,0E0,0E0,0E0,0E0,0E0,0E0,0E0,0E0,0E0,0E0,0E0,0E0,0E0,0E0,0E0,0E0,0E0,0E0,0E0,0E0,0E0,0E0,0E0,0E0,0E0,0E0,0E0,0E0,0E0,0E0,0E0,0E0],"parents":[2147483647,0,0,1,1,2,2,3,3,4,4,5,5,7,7,8,8,9,9,10,10,11,11,12,12,13,13,14,14,15,15,16,16,17,17,18,18,19,19,20,20,23,23,24,24,25,25,26,26,27,27,28,28,29,29,30,30,31,31,32,32,33,33,34,34,35,35,36,36,37,37,38,38,39,39,40,40,42,42,43,43],"right_children":[2,4,6,8,10,12,-1,14,16,18,20,22,24,26,28,30,32,34,36,38,40,-1,-1,42,44,46,48,50,52,54,56,58,60,62,64,66,68,70,72,74,76,-1,78,80,-1,-1,-1,-1,-1,-1,-1,-1,-1,-1,-1,-1,-1,-1,-1,-1,-1,-1,-1,-1,-1,-1,-1,-1,-1,-1,-1,-1,-1,-1,-1,-1,-1,-1,-1,-1,-1],"split_conditions":[1.876E6,6.03E5,5.963E6,2.814E5,1.139E6,7E3,1.4050988E5,1.407E5,4.087E5,7.5375E5,4.6957E4,2.018E3,2.1E4,6.7E4,2.077E5,3.484E5,5.025E5,6.7E5,8.71E5,2.8245E4,2.017E3,8.979345E4,1.5780014E4,2.018E3,2.546E6,3.015E4,1.072E5,1.8425E5,2.4455E5,3.216E5,3.8525E5,4.3885E5,5.36E5,2.012E3,6.8675E5,7.1E4,2.013E3,2.015E3,1.675E6,2.013E3,1.206E6,-1.8091895E4,1.327E4,2.017E3,3.4750617E4,-3.9461594E3,-2.536453E3,-2.1507366E3,-1.8247675E3,-1.5066882E3,-1.2102454E3,-9.6274524E2,-6.4214154E2,-3.4446494E2,-5.1532898E1,2.2894212E2,5.0817728E2,7.519116E2,1.1464976E3,1.4958816E3,1.9158247E3,5.3202227E3,2.236203E3,4.005571E3,2.554018E3,4.4220854E3,2.2486846E3,1.0972775E4,5.1738306E3,-3.7778125E3,9.759003E3,3.132074E4,1.2038466E4,1.1192002E4,4.318523E3,3.32955E3,1.0697535E4,1.543422E4,3.3229477E4,2.7197803E4,1.0705895E4],"split_indices":[1,1,1,1,1,2,0,1,1,1,2,0,2,1,1,1,1,1,1,2,0,0,0,0,1,1,1,1,1,1,1,1,1,0,1,2,0,0,1,0,1,0,2,0,0,0,0,0,0,0,0,0,0,0,0,0,0,0,0,0,0,0,0,0,0,0,0,0,0,0,0,0,0,0,0,0,0,0,0,0,0],"split_type":[0,0,0,0,0,0,0,0,0,0,0,0,0,0,0,0,0,0,0,0,0,0,0,0,0,0,0,0,0,0,0,0,0,0,0,0,0,0,0,0,0,0,0,0,0,0,0,0,0,0,0,0,0,0,0,0,0,0,0,0,0,0,0,0,0,0,0,0,0,0,0,0,0,0,0,0,0,0,0,0,0],"sum_hessian":[4.34E3,4.284E3,5.6E1,3.883E3,4.01E2,5.5E1,1E0,2.452E3,1.431E3,3.19E2,8.2E1,3E0,5.2E1,1.085E3,1.367E3,8.31E2,6E2,1.67E2,1.52E2,3.8E1,4.4E1,1E0,2E0,1.9E1,3.3E1,3.2E2,7.65E2,8.06E2,5.61E2,4.51E2,3.8E2,3.39E2,2.61E2,8.3E1,8.4E1,6.5E1,8.7E1,2.6E1,1.2E1,2.6E1,1.8E1,1E0,1.8E1,1.2E1,2.1E1,1.6E1,3.04E2,4.6E2,3.05E2,5.08E2,2.98E2,3.1E2,2.51E2,2.68E2,1.83E2,2.29E2,1.51E2,1.57E2,1.82E2,1.12E2,1.49E2,4E0,7.9E1,3.4E1,5E1,5.4E1,1.1E1,5E0,8.2E1,2E0,2.4E1,5E0,7E0,7E0,1.9E1,2E0,1.6E1,1.6E1,2E0,5E0,7E0],"tree_param":{"num_deleted":"0","num_feature":"7","num_nodes":"81","size_leaf_vector":"1"}},{"base_weights":[5.3796906E2,-5.4237476E2,8.174385E4,-1.852534E3,1.3163201E4,6.8985305E4,1.1943338E5,-3.7705955E3,1.4500074E3,9.5206455E3,2.581938E4,1.587674E5,6.0907688E4,-4.942253E3,-2.4637595E3,3.8522186E2,3.6283923E3,7.845191E3,1.3315504E4,3.2545107E4,1.813583E4,7.632443E4,1.2624014E4,5.4945414E4,3.6062758E4,-7.3808447E3,-4.7291772E3,-3.004093E3,-1.8493289E3,-3.3526273E2,1.267137E3,2.9616724E3,4.5937676E3,6.632779E3,9.413374E3,2.6851594E4,1.1814218E4,1.5837356E4,4.5112188E4,6.3435454E3,2.1735162E4,4.08626E4,7.7711375E4,-2.8319495E3,-2.068103E3,-1.5909972E3,-1.260366E3,-9.6199854E2,-8.151754E2,-6.59693E2,-4.4634824E2,-2.272556E2,8.793097E0,2.9487094E2,5.2776746E2,9.377302E2,3.888351E2,1.1669993E3,1.5045771E3,2.2154836E3,1.2465563E3,3.0105725E3,1.7278175E3,1.0422998E4,6.352813E2,2.907493E3,7.3321367E3,-1.00853253E3,6.2541753E3,1.6047133E4,3.3187065E3,7.267897E3,-5.9883154E3,7.1355186E3,-1.5976752E3,-2.3203127E2,1.3515597E4,2.4066697E4,5.2537876E3],"categories":[],"categories_nodes":[],"categories_segments":[],"categories_sizes":[],"default_left":[0,0,0,0,0,0,0,0,0,0,0,0,0,0,0,0,0,0,0,0,0,0,0,0,0,0,0,0,0,0,0,0,0,0,0,0,0,0,0,0,0,0,0,0,0,0,0,0,0,0,0,0,0,0,0,0,0,0,0,0,0,0,0,0,0,0,0,0,0,0,0,0,0,0,0,0,0,0,0],"id":11,"left_children":[1,3,5,7,9,11,-1,13,15,17,19,21,23,25,27,29,31,33,35,37,39,-1,-1,41,-1,43,45,47,49,51,53,55,57,59,61,63,65,67,69,71,73,75,77,-1,-1,-1,-1,-1,-1,-1,-1,-1,-1,-1,-1,-1,-1,-1,-1,-1,-1,-1,-1,-1,-1,-1,-1,-1,-1,-1,-1,-1,-1,-1,-1,-1,-1,-1,-1],"loss_changes":[3.8088144E11,7.696793E10,2.0261034E11,2.478594E10,1.6995897E10,3.0942462E10,0E0,3.777454E9,3.3340616E9,1.752105E9,3.6989993E9,3.3937564E10,1.2134367E10,6.426583E8,3.8354586E8,6.148626E8,2.9019085E8,3.273257E8,1.4710651E9,8.314147E9,1.6023409E9,0E0,0E0,1.2854936E10,0E0,3.824179E7,3.4207744E8,2.742784E7,6.637363E7,8.207388E7,5.911341E7,7.30217E7,3.7147136E7,1.9107789E8,1.3989274E8,1.487979E9,1.9339418E9,1.9937961E9,6.2549484E9,5.6579743E9,1.8462935E9,5.791015E9,1.3159055E9,0E0,0E0,0E0,0E0,0E0,0E0,0E0,0E0,0E0,0E0,0E0,0E0,0E0,0E0,0E0,0E0,0E0,0E0,0E0,0E0,0E0,0E0,0E0,0E0,0E0,0E0,0E0,0E0,0E0,0E0,0E0,0E0,0E0,0E0,0E0,0E0],"parents":[2147483647,0,0,1,1,2,2,3,3,4,4,5,5,7,7,8,8,9,9,10,10,11,11,12,12,13,13,14,14,15,15,16,16,17,17,18,18,19,19,20,20,23,23,25,25,26,26,27,27,28,28,29,29,30,30,31,31,32,32,33,33,34,34,35,35,36,36,37,37,38,38,39,39,40,40,41,41,42,42],"right_children":[2,4,6,8,10,12,-1,14,16,18,20,22,24,26,28,30,32,34,36,38,40,-1,-1,42,-1,44,46,48,50,52,54,56,58,60,62,64,66,68,70,72,74,76,78,-1,-1,-1,-1,-1,-1,-1,-1,-1,-1,-1,-1,-1,-1,-1,-1,-1,-1,-1,-1,-1,-1,-1,-1,-1,-1,-1,-1,-1,-1,-1,-1,-1,-1,-1,-1],"split_conditions":[1.876E6,6.1975E5,5.963E6,2.8475E5,1.139E6,7E3,1.1943338E5,1.5745E5,4.3885E5,8.71E5,1E0,2.018E3,8.1595E4,4.623E4,2.144E5,3.685E5,5.293E5,7.37E5,1E0,1.3165494E6,4.3235E4,7.632443E4,1.2624014E4,3.015E6,3.6062758E4,3.015E4,1.005E5,1.9095E5,2.4455E5,3.216E5,4.087E5,5.1121E5,5.5275E5,6.8675E5,7.1E4,2.019E3,1E0,2.015E3,4.6957E4,1.3165494E6,1.3E5,2.015E3,7.8413E4,-2.8319495E3,-2.068103E3,-1.5909972E3,-1.260366E3,-9.6199854E2,-8.151754E2,-6.59693E2,-4.4634824E2,-2.272556E2,8.793097E0,2.9487094E2,5.2776746E2,9.377302E2,3.888351E2,1.1669993E3,1.5045771E3,2.2154836E3,1.2465563E3,3.0105725E3,1.7278175E3,1.0422998E4,6.352813E2,2.907493E3,7.3321367E3,-1.00853253E3,6.2541753E3,1.6047133E4,3.3187065E3,7.267897E3,-5.9883154E3,7.1355186E3,-1.5976752E3,-2.3203127E2,1.3515597E4,2.4066697E4,5.2537876E3],"split_indices":[1,1,1,1,1,2,0,1,1,1,4,0,2,1,1,1,1,1,3,1,2,0,0,1,0,1,1,1,1,1,1,1,1,1,2,0,6,0,2,1,2,0,2,0,0,0,0,0,0,0,0,0,0,0,0,0,0,0,0,0,0,0,0,0,0,0,0,0,0,0,0,0,0,0,0,0,0,0,0],"split_type":[0,0,0,0,0,0,0,0,0,0,0,0,0,0,0,0,0,0,0,0,0,0,0,0,0,0,0,0,0,0,0,0,0,0,0,0,0,0,0,0,0,0,0,0,0,0,0,0,0,0,0,0,0,0,0,0,0,0,0,0,0,0,0,0,0,0,0,0,0,0,0,0,0,0,0,0,0,0,0],"sum_hessian":[4.34E3,4.284E3,5.6E1,3.911E3,3.73E2,5.5E1,1E0,2.474E3,1.437E3,2.91E2,8.2E1,3E0,5.2E1,1.303E3,1.171E3,9.66E2,4.71E2,2.04E2,8.7E1,4.2E1,4E1,1E0,2E0,4.9E1,3E0,1.02E2,1.201E3,6.21E2,5.5E2,5.32E2,4.34E2,2.81E2,1.9E2,1.18E2,8.6E1,7E0,8E1,1.9E1,2.3E1,1E1,3E1,3.2E1,1.7E1,1.6E1,8.6E1,5.71E2,6.3E2,3.58E2,2.63E2,2.77E2,2.73E2,2.46E2,2.86E2,2.77E2,1.57E2,2.55E2,2.6E1,7.5E1,1.15E2,8.9E1,2.9E1,7.2E1,1.4E1,5E0,2E0,7E1,1E1,4E0,1.5E1,1.8E1,5E0,6E0,4E0,2.8E1,2E0,3E0,2.9E1,1.6E1,1E0],"tree_param":{"num_deleted":"0","num_feature":"7","num_nodes":"79","size_leaf_vector":"1"}},{"base_weights":[4.5534885E2,2.9951163E2,1.0151835E5,-3.6685162E2,5.128285E4,-1.2269592E3,1.033037E4,1.3337428E5,4.4119668E4,-2.6437153E3,1.1224701E3,6.948996E3,1.7353941E4,6.4875754E4,3.3664043E4,7.466093E4,3.528075E4,-3.625746E3,-1.8745576E3,3.366267E2,2.8375386E3,5.770309E3,9.103707E3,6.984676E3,2.0764543E4,1.1980257E4,3.1685627E3,3.5865207E4,3.0303951E4,2.1112191E4,5.787068E4,-1.5642498E3,-1.0367382E3,-6.75443E2,-3.8896277E2,-8.707465E1,2.700574E2,1.754099E3,8.113388E2,1.939589E3,2.6829672E2,1.984622E3,5.359756E3,-4.9637814E2,1.7122238E4,6.692131E3,-7.416288E3,-1.7983125E2,2.17589E4,-3.2125E0,8.868566E3,-1.3255856E4,2.0286066E4],"categories":[],"categories_nodes":[],"categories_segments":[],"categories_sizes":[],"default_left":[0,0,0,0,0,0,0,0,0,0,0,0,0,0,0,0,0,0,0,0,0,0,0,0,0,0,0,0,0,0,0,0,0,0,0,0,0,0,0,0,0,0,0,0,0,0,0,0,0,0,0,0,0],"id":12,"left_children":[1,3,-1,5,7,9,11,13,15,17,19,21,23,-1,25,27,29,31,33,35,37,39,41,43,45,-1,-1,47,-1,49,51,-1,-1,-1,-1,-1,-1,-1,-1,-1,-1,-1,-1,-1,-1,-1,-1,-1,-1,-1,-1,-1,-1],"loss_changes":[2.2851094E11,1.4746345E11,0E0,3.9437943E10,2.7045577E10,1.3207398E10,7.455441E9,2.5775292E10,1.1673354E10,1.8626601E9,2.0112732E9,4.985897E8,3.497605E9,0E0,1.2781824E7,7.623037E9,1.2541092E10,2.7515392E8,2.999127E8,3.623783E8,1.7201536E8,4.788096E8,1.5170237E9,1.1778313E10,5.954087E9,0E0,0E0,8.065216E9,0E0,4.9978153E9,1.8907996E10,0E0,0E0,0E0,0E0,0E0,0E0,0E0,0E0,0E0,0E0,0E0,0E0,0E0,0E0,0E0,0E0,0E0,0E0,0E0,0E0,0E0,0E0],"parents":[2147483647,0,0,1,1,3,3,4,4,5,5,6,6,7,7,8,8,9,9,10,10,11,11,12,12,14,14,15,15,16,16,17,17,18,18,19,19,20,20,21,21,22,22,23,23,24,24,27,27,29,29,30,30],"right_children":[2,4,-1,6,8,10,12,14,16,18,20,22,24,-1,26,28,30,32,34,36,38,40,42,44,46,-1,-1,48,-1,50,52,-1,-1,-1,-1,-1,-1,-1,-1,-1,-1,-1,-1,-1,-1,-1,-1,-1,-1,-1,-1,-1,-1],"split_conditions":[5.963E6,1.876E6,1.0151835E5,6.7E5,7E3,2.8475E5,1.0586E6,2.018E3,2.017E3,1.407E5,4.623E5,1E0,2.014E3,6.4875754E4,2.02E3,4.96E4,2.019E3,4.623E4,2.144E5,3.551E5,2.012E3,9.38E5,9.38E5,1.18E5,1.3E5,1.1980257E4,3.1685627E3,2.015E3,3.0303951E4,2.546E6,1.051E4,-1.5642498E3,-1.0367382E3,-6.75443E2,-3.8896277E2,-8.707465E1,2.700574E2,1.754099E3,8.113388E2,1.939589E3,2.6829672E2,1.984622E3,5.359756E3,-4.9637814E2,1.7122238E4,6.692131E3,-7.416288E3,-1.7983125E2,2.17589E4,-3.2125E0,8.868566E3,-1.3255856E4,2.0286066E4],"split_indices":[1,1,0,1,2,1,1,0,0,1,1,5,0,0,0,2,0,1,1,1,0,1,1,2,2,0,0,0,0,1,2,0,0,0,0,0,0,0,0,0,0,0,0,0,0,0,0,0,0,0,0,0,0],"split_type":[0,0,0,0,0,0,0,0,0,0,0,0,0,0,0,0,0,0,0,0,0,0,0,0,0,0,0,0,0,0,0,0,0,0,0,0,0,0,0,0,0,0,0,0,0,0,0,0,0,0,0,0,0],"sum_hessian":[4.34E3,4.339E3,1E0,4.284E3,5.5E1,3.966E3,3.18E2,3E0,5.2E1,2.474E3,1.492E3,2.16E2,1.02E2,1E0,2E0,1E1,4.2E1,1.085E3,1.389E3,1.024E3,4.68E2,1.42E2,7.4E1,2.6E1,7.6E1,1E0,1E0,5E0,5E0,2.7E1,1.5E1,1.02E2,9.83E2,8.39E2,5.5E2,4.85E2,5.39E2,1.8E1,4.5E2,1.24E2,1.8E1,5.9E1,1.5E1,2.3E1,3E0,7.4E1,2E0,3E0,2E0,8E0,1.9E1,1E0,1.4E1],"tree_param":{"num_deleted":"0","num_feature":"7","num_nodes":"53","size_leaf_vector":"1"}},{"base_weights":[3.8182986E2,2.4936705E2,8.629058E4,-2.5107106E2,3.8537367E4,-1.00787854E3,5.86485E3,1.1336809E5,3.2162645E4,-1.9530978E3,4.2777298E2,4.0569949E3,1.2302146E4,5.514435E4,2.8614459E4,2.5427324E4,5.858179E4,-2.7590295E3,-1.5377124E3,-1.9931335E2,1.1939933E3,3.1052556E3,5.729604E3,1.720857E4,8.198739E3,1.0183219E4,2.6932876E3,3.1716342E4,-1.2345536E4,2.2727951E4,7.8755327E3,-1.2524337E3,-7.919046E2,-5.453463E2,-3.4460315E2,-1.620128E2,1.8563272E1,2.7437952E2,5.706806E2,8.6553534E2,1.926414E3,2.3453237E3,1.1877267E3,4.318438E3,2.1574295E4,3.5378428E3,8.948565E2,4.8032197E3,1.3973785E4,-1.1592375E3,-9.485101E3],"categories":[],"categories_nodes":[],"categories_segments":[],"categories_sizes":[],"default_left":[0,0,0,0,0,0,0,0,0,0,0,0,0,0,0,0,0,0,0,0,0,0,0,0,0,0,0,0,0,0,0,0,0,0,0,0,0,0,0,0,0,0,0,0,0,0,0,0,0,0,0],"id":13,"left_children":[1,3,-1,5,7,9,11,13,15,17,19,21,23,-1,25,27,29,31,33,35,37,39,41,43,45,-1,-1,47,49,-1,-1,-1,-1,-1,-1,-1,-1,-1,-1,-1,-1,-1,-1,-1,-1,-1,-1,-1,-1,-1,-1],"loss_changes":[1.6510506E11,8.316744E10,0E0,1.9839353E10,2.3067181E10,5.176453E9,5.4430853E9,1.8622603E10,7.9413207E9,7.657339E8,7.2817466E8,5.712072E8,1.9326167E9,0E0,9.23264E6,1.0843937E10,3.5648348E9,1.2094208E8,1.6354944E8,7.425558E7,1.3322022E8,1.5521434E8,4.607611E8,6.0455813E9,1.05210675E9,0E0,0E0,8.124633E9,1.02197235E9,0E0,0E0,0E0,0E0,0E0,0E0,0E0,0E0,0E0,0E0,0E0,0E0,0E0,0E0,0E0,0E0,0E0,0E0,0E0,0E0,0E0,0E0],"parents":[2147483647,0,0,1,1,3,3,4,4,5,5,6,6,7,7,8,8,9,9,10,10,11,11,12,12,14,14,15,15,16,16,17,17,18,18,19,19,20,20,21,21,22,22,23,23,24,24,27,27,28,28],"right_children":[2,4,-1,6,8,10,12,14,16,18,20,22,24,-1,26,28,30,32,34,36,38,40,42,44,46,-1,-1,48,50,-1,-1,-1,-1,-1,-1,-1,-1,-1,-1,-1,-1,-1,-1,-1,-1,-1,-1,-1,-1,-1,-1],"split_conditions":[5.963E6,1.876E6,8.629058E4,5.5945E5,7E3,2.613E5,1.0586E6,2.018E3,4.96E4,1.072E5,3.8525E5,7.5375E5,1E0,5.514435E4,2.02E3,3.6E4,2.017E3,4.02E4,1.9095E5,3.0485E5,5.025E5,1.2E5,3.5E4,1.31365E5,1.3165494E6,1.0183219E4,2.6932876E3,2.1E4,2.018E3,2.2727951E4,7.8755327E3,-1.2524337E3,-7.919046E2,-5.453463E2,-3.4460315E2,-1.620128E2,1.8563272E1,2.7437952E2,5.706806E2,8.6553534E2,1.926414E3,2.3453237E3,1.1877267E3,4.318438E3,2.1574295E4,3.5378428E3,8.948565E2,4.8032197E3,1.3973785E4,-1.1592375E3,-9.485101E3],"split_indices":[1,1,0,1,2,1,1,0,2,1,1,1,4,0,0,2,0,1,1,1,1,2,2,2,1,0,0,2,0,0,0,0,0,0,0,0,0,0,0,0,0,0,0,0,0,0,0,0,0,0,0],"split_type":[0,0,0,0,0,0,0,0,0,0,0,0,0,0,0,0,0,0,0,0,0,0,0,0,0,0,0,0,0,0,0,0,0,0,0,0,0,0,0,0,0,0,0,0,0,0,0,0,0,0,0],"sum_hessian":[4.34E3,4.339E3,1E0,4.284E3,5.5E1,3.813E3,4.71E2,3E0,5.2E1,2.299E3,1.514E3,3.69E2,1.02E2,1E0,2E0,4.3E1,9E0,7.8E2,1.519E3,8.33E2,6.81E2,2.37E2,1.32E2,4.5E1,5.7E1,1E0,1E0,3.7E1,6E0,5E0,4E0,5.8E1,7.22E2,8.81E2,6.38E2,3.61E2,4.72E2,4.9E2,1.91E2,2.24E2,1.3E1,5.9E1,7.3E1,4.4E1,1E0,3.3E1,2.4E1,1.9E1,1.8E1,5E0,1E0],"tree_param":{"num_deleted":"0","num_feature":"7","num_nodes":"51","size_leaf_vector":"1"}},{"base_weights":[3.196775E2,2.0708295E2,7.3347E4,-2.4783408E2,2.4434512E4,-7.854345E2,3.1450989E3,8.3718125E4,2.0212768E4,-1.4115603E3,1.2813799E2,2.1305686E3,6.167148E3,4.6872676E4,2.6526531E4,4.4423816E4,1.5871339E4,-2.0043129E3,-1.1460459E3,-1.918917E2,6.84299E2,1.7084115E3,2.929721E3,5.6298564E3,2.3833531E4,9.084413E3,2.2893E3,-4.115738E3,5.1610023E4,1.1610402E4,2.7469896E4,-1.2370413E3,-5.83955E2,-4.338885E2,-2.7883545E2,-1.1281884E2,3.5929264E1,7.378471E2,1.8888707E2,1.3096865E3,4.5788574E2,3.2113562E2,1.0099452E3,-8.7083336E1,2.479188E3,1.8338156E4,-2.6920251E3,3.863925E3,1.9910625E4,-3.17575E3,3.8267354E3,1.7053501E3,8.998695E3],"categories":[],"categories_nodes":[],"categories_segments":[],"categories_sizes":[],"default_left":[0,0,0,0,0,0,0,0,0,0,0,0,0,0,0,0,0,0,0,0,0,0,0,0,0,0,0,0,0,0,0,0,0,0,0,0,0,0,0,0,0,0,0,0,0,0,0,0,0,0,0,0,0],"id":14,"left_children":[1,3,-1,5,7,9,11,13,15,17,19,21,23,-1,25,27,29,31,33,35,37,39,41,43,45,-1,-1,-1,47,49,51,-1,-1,-1,-1,-1,-1,-1,-1,-1,-1,-1,-1,-1,-1,-1,-1,-1,-1,-1,-1,-1,-1],"loss_changes":[1.19293215E11,4.7839236E10,0E0,7.7747144E9,1.8330247E10,2.1046103E9,1.7743155E9,1.6594285E10,7.283335E9,3.412731E8,2.6657941E8,1.4276198E8,1.2516516E9,0E0,5.2722176E7,5.304144E9,2.9428316E9,7.452493E7,9.685453E7,5.4630532E7,5.154296E7,1.3319731E8,1.1820544E8,2.2323758E9,5.442484E9,0E0,0E0,0E0,4.86128E9,1.406188E9,7.649075E8,0E0,0E0,0E0,0E0,0E0,0E0,0E0,0E0,0E0,0E0,0E0,0E0,0E0,0E0,0E0,0E0,0E0,0E0,0E0,0E0,0E0,0E0],"parents":[2147483647,0,0,1,1,3,3,4,4,5,5,6,6,7,7,8,8,9,9,10,10,11,11,12,12,14,14,15,15,16,16,17,17,18,18,19,19,20,20,21,21,22,22,23,23,24,24,28,28,29,29,30,30],"right_children":[2,4,-1,6,8,10,12,14,16,18,20,22,24,-1,26,28,30,32,34,36,38,40,42,44,46,-1,-1,-1,48,50,52,-1,-1,-1,-1,-1,-1,-1,-1,-1,-1,-1,-1,-1,-1,-1,-1,-1,-1,-1,-1,-1,-1],"split_conditions":[5.963E6,1.742E6,7.3347E4,5.0585E5,7E3,2.412E5,8.71E5,2.018E3,2.017E3,1.005E5,3.8525E5,6.7E5,1.31365E5,4.6872676E4,2.02E3,3.108E4,3.015E6,3.015E4,1.5745E5,3.35E5,4E3,5.1121E5,1E0,2.014E3,2.013E3,9.084413E3,2.2893E3,-4.115738E3,2.014E3,9.8E3,1E0,-1.2370413E3,-5.83955E2,-4.338885E2,-2.7883545E2,-1.1281884E2,3.5929264E1,7.378471E2,1.8888707E2,1.3096865E3,4.5788574E2,3.2113562E2,1.0099452E3,-8.7083336E1,2.479188E3,1.8338156E4,-2.6920251E3,3.863925E3,1.9910625E4,-3.17575E3,3.8267354E3,1.7053501E3,8.998695E3],"split_indices":[1,1,0,1,2,1,1,0,0,1,1,1,2,0,0,2,1,1,1,1,2,1,3,0,0,0,0,0,0,2,3,0,0,0,0,0,0,0,0,0,0,0,0,0,0,0,0,0,0,0,0,0,0],"split_type":[0,0,0,0,0,0,0,0,0,0,0,0,0,0,0,0,0,0,0,0,0,0,0,0,0,0,0,0,0,0,0,0,0,0,0,0,0,0,0,0,0,0,0,0,0,0,0,0,0,0,0,0,0],"sum_hessian":[4.34E3,4.339E3,1E0,4.26E3,7.9E1,3.678E3,5.82E2,4E0,7.5E1,2.182E3,1.496E3,4.37E2,1.45E2,1E0,3E0,1E1,6.5E1,6.73E2,1.509E3,9.5E2,5.46E2,2.88E2,1.49E2,1.42E2,3E0,2E0,1E0,1E0,9E0,4.9E1,1.6E1,1.6E1,6.57E2,6.3E2,8.79E2,5.97E2,3.53E2,1.5E1,5.31E2,1.7E1,2.71E2,2.9E1,1.2E2,4.4E1,9.8E1,1E0,2E0,3E0,6E0,2E0,4.7E1,2E0,1.4E1],"tree_param":{"num_deleted":"0","num_feature":"7","num_nodes":"53","size_leaf_vector":"1"}},{"base_weights":[2.657127E2,1.7000597E2,6.2344953E4,-2.1825354E2,1.6143538E4,-6.894285E2,1.4022249E3,7.025202E4,1.324772E4,-1.11712E3,-2.5103502E2,9.2285126E2,3.1088748E3,3.98418E4,2.1412031E4,3.9791443E3,1.6325223E4,-1.6670403E3,-9.847492E2,-4.5196313E2,7.1367485E1,6.602732E2,1.4956816E3,9.590926E2,5.4425464E3,7.2675376E3,1.9459126E3,1.0010826E4,-3.1697812E4,2.3588586E4,1.0540273E4,-4.3126273E2,-1.1784832E3,-2.6862343E1,-3.2445438E2,1.5307266E2,-1.4193723E2,4.183811E2,6.891558E0,6.7451746E2,1.7742764E2,5.4499304E2,-2.2422375E2,7.171715E2,-4.2463754E2,8.839426E2,2.4255715E3,1.6500393E3,1.638692E4,-1.9851738E4,1.0758919E4,1.2643796E4,4.694011E3,-3.2952375E3,4.2982754E3],"categories":[],"categories_nodes":[],"categories_segments":[],"categories_sizes":[],"default_left":[0,0,0,0,0,0,0,0,0,0,0,0,0,0,0,0,0,0,0,0,0,0,0,0,0,0,0,0,0,0,0,0,0,0,0,0,0,0,0,0,0,0,0,0,0,0,0,0,0,0,0,0,0,0,0],"id":15,"left_children":[1,3,-1,5,7,9,11,13,15,17,19,21,23,-1,25,27,29,31,33,35,37,39,41,43,45,-1,-1,47,49,51,53,-1,-1,-1,-1,-1,-1,-1,-1,-1,-1,-1,-1,-1,-1,-1,-1,-1,-1,-1,-1,-1,-1,-1,-1],"loss_changes":[8.619435E10,2.6919664E10,0E0,3.236802E9,1.5208219E10,6.154602E8,7.784383E8,1.2432034E10,2.7589222E9,1.1934106E8,1.0516976E8,1.1137069E8,1.0433092E9,0E0,1.0815872E7,5.912315E9,2.860714E9,1.6093555E8,1.1615398E8,2.060256E7,3.9928204E7,5.487011E7,1.698255E8,3.772869E8,6.3581184E8,0E0,0E0,4.3279063E9,1.1689696E10,4.0567357E9,3.6627185E9,0E0,0E0,0E0,0E0,0E0,0E0,0E0,0E0,0E0,0E0,0E0,0E0,0E0,0E0,0E0,0E0,0E0,0E0,0E0,0E0,0E0,0E0,0E0,0E0],"parents":[2147483647,0,0,1,1,3,3,4,4,5,5,6,6,7,7,8,8,9,9,10,10,11,11,12,12,14,14,15,15,16,16,17,17,18,18,19,19,20,20,21,21,22,22,23,23,24,24,27,27,28,28,29,29,30,30],"right_children":[2,4,-1,6,8,10,12,14,16,18,20,22,24,-1,26,28,30,32,34,36,38,40,42,44,46,-1,-1,48,50,52,54,-1,-1,-1,-1,-1,-1,-1,-1,-1,-1,-1,-1,-1,-1,-1,-1,-1,-1,-1,-1,-1,-1,-1,-1],"split_conditions":[5.963E6,1.3165494E6,6.2344953E4,4.087E5,7E3,1.9095E5,7.37E5,2.018E3,2.2E4,6.7E4,3.0485E5,5.5275E5,1E0,3.98418E4,2.02E3,1.9E4,1E0,6.365E4,8.04E4,1.943E5,3.149E5,4.154E5,6.8675E5,9.38E5,9.38E5,7.2675376E3,1.9459126E3,1.7E4,2.019E3,1.675E6,1.675E6,-4.3126273E2,-1.1784832E3,-2.6862343E1,-3.2445438E2,1.5307266E2,-1.4193723E2,4.183811E2,6.891558E0,6.7451746E2,1.7742764E2,5.4499304E2,-2.2422375E2,7.171715E2,-4.2463754E2,8.839426E2,2.4255715E3,1.6500393E3,1.638692E4,-1.9851738E4,1.0758919E4,1.2643796E4,4.694011E3,-3.2952375E3,4.2982754E3],"split_indices":[1,1,0,1,2,1,1,0,2,1,1,1,4,0,0,2,4,1,1,1,1,1,1,1,1,0,0,2,0,1,1,0,0,0,0,0,0,0,0,0,0,0,0,0,0,0,0,0,0,0,0,0,0,0,0],"split_type":[0,0,0,0,0,0,0,0,0,0,0,0,0,0,0,0,0,0,0,0,0,0,0,0,0,0,0,0,0,0,0,0,0,0,0,0,0,0,0,0,0,0,0,0,0,0,0,0,0,0,0,0,0,0,0],"sum_hessian":[4.34E3,4.339E3,1E0,4.237E3,1.02E2,3.283E3,9.54E2,4E0,9.8E1,1.661E3,1.622E3,7.46E2,2.08E2,1E0,3E0,2.5E1,7.3E1,3.2E2,1.341E3,9.99E2,6.23E2,5.13E2,2.33E2,1.09E2,9.9E1,2E0,1E0,2.2E1,3E0,3.1E1,4.2E1,2.92E2,2.8E1,1.31E2,1.21E3,2.1E1,9.78E2,2.1E1,6.02E2,2E1,4.93E2,2.04E2,2.9E1,6.8E1,4.1E1,5.2E1,4.7E1,2.1E1,1E0,2E0,1E0,8E0,2.3E1,6E0,3.6E1],"tree_param":{"num_deleted":"0","num_feature":"7","num_nodes":"55","size_leaf_vector":"1"}},{"base_weights":[2.186914E2,1.3733902E2,5.2993203E4,-8.801964E1,1.7378848E4,-3.309996E2,2.2597969E3,6.61712E4,1.2353067E4,-6.838848E2,1.8128238E2,3.298485E3,4.9281082E2,3.38655E4,2.62715E4,2.8832477E4,7.7429106E3,-1.1581392E3,-5.474327E2,-4.860123E0,5.614368E2,6.875125E3,1.6650393E3,1.2881403E3,-4.7412373E3,9.405926E3,1.6540126E3,4.77593E4,1.1194393E4,-7.1095713E3,1.4646077E4,-2.5519563E2,-1.01434186E3,-2.0974014E2,-1.2791246E2,-3.890551E1,7.81633E1,2.0004543E2,-6.33511E2,1.4469872E3,1.717415E4,2.336509E3,8.782136E1,6.2171313E2,-1.6434235E2,-2.4969045E3,3.4999875E3,6.737963E3,2.234355E4,-3.1959377E3,9.072994E3,-9.693047E3,8.101807E2,1.3928888E4,3.5558252E3],"categories":[],"categories_nodes":[],"categories_segments":[],"categories_sizes":[],"default_left":[0,0,0,0,0,0,0,0,0,0,0,0,0,0,0,0,0,0,0,0,0,0,0,0,0,0,0,0,0,0,0,0,0,0,0,0,0,0,0,0,0,0,0,0,0,0,0,0,0,0,0,0,0,0,0],"id":16,"left_children":[1,3,-1,5,7,9,11,13,15,17,19,21,23,-1,25,27,29,31,33,35,37,39,41,43,45,-1,-1,47,49,51,53,-1,-1,-1,-1,-1,-1,-1,-1,-1,-1,-1,-1,-1,-1,-1,-1,-1,-1,-1,-1,-1,-1,-1,-1],"loss_changes":[6.2280454E10,1.6864702E10,0E0,2.4452227E9,1.2914883E10,7.0226074E8,7.361842E8,6.3536763E9,3.7273313E9,1.4820595E8,1.1216193E8,1.4666412E9,6.305263E8,0E0,2.490752E8,3.1375247E9,4.410352E9,3.4778182E8,3.2537824E7,3.531626E7,1.4817317E8,7.888932E9,1.4682532E9,1.8975142E8,1.2724877E9,0E0,0E0,1.7071247E9,3.235387E9,3.5483663E9,2.0243548E9,0E0,0E0,0E0,0E0,0E0,0E0,0E0,0E0,0E0,0E0,0E0,0E0,0E0,0E0,0E0,0E0,0E0,0E0,0E0,0E0,0E0,0E0,0E0,0E0],"parents":[2147483647,0,0,1,1,3,3,4,4,5,5,6,6,7,7,8,8,9,9,10,10,11,11,12,12,14,14,15,15,16,16,17,17,18,18,19,19,20,20,21,21,22,22,23,23,24,24,27,27,28,28,29,29,30,30],"right_children":[2,4,-1,6,8,10,12,14,16,18,20,22,24,-1,26,28,30,32,34,36,38,40,42,44,46,-1,-1,48,50,52,54,-1,-1,-1,-1,-1,-1,-1,-1,-1,-1,-1,-1,-1,-1,-1,-1,-1,-1,-1,-1,-1,-1,-1,-1],"split_conditions":[5.963E6,1.876E6,5.2993203E4,6.03E5,9.8E3,2.613E5,2.018E3,2.018E3,2.017E3,8.375E4,4.355E5,4.6957E4,1.139E6,3.38655E4,2.02E3,1E0,1E0,8.04E4,1.5745E5,2.017E3,5.8625E5,4.5143E4,2.013E3,2.7289E4,2.643E4,9.405926E3,1.6540126E3,2.015E3,4.96E4,2.1E4,2.546E6,-2.5519563E2,-1.01434186E3,-2.0974014E2,-1.2791246E2,-3.890551E1,7.81633E1,2.0004543E2,-6.33511E2,1.4469872E3,1.717415E4,2.336509E3,8.782136E1,6.2171313E2,-1.6434235E2,-2.4969045E3,3.4999875E3,6.737963E3,2.234355E4,-3.1959377E3,9.072994E3,-9.693047E3,8.101807E2,1.3928888E4,3.5558252E3],"split_indices":[1,1,0,1,2,1,0,0,0,1,1,2,1,0,0,4,4,1,1,0,1,2,0,2,2,0,0,0,2,2,1,0,0,0,0,0,0,0,0,0,0,0,0,0,0,0,0,0,0,0,0,0,0,0,0],"split_type":[0,0,0,0,0,0,0,0,0,0,0,0,0,0,0,0,0,0,0,0,0,0,0,0,0,0,0,0,0,0,0,0,0,0,0,0,0,0,0,0,0,0,0,0,0,0,0,0,0,0,0,0,0,0,0],"sum_hessian":[4.34E3,4.339E3,1E0,4.284E3,5.5E1,3.883E3,4.01E2,4E0,5.1E1,2.299E3,1.584E3,2.52E2,1.49E2,1E0,3E0,1E1,4.1E1,5.12E2,1.787E3,1.064E3,5.2E2,7.8E1,1.74E2,1.3E2,1.9E1,2E0,1E0,4E0,6E0,1.3E1,2.8E1,4.51E2,6.1E1,7.91E2,9.96E2,7.24E2,3.4E2,5.01E2,1.9E1,7.6E1,2E0,3.1E1,1.43E2,9.1E1,3.9E1,1.6E1,3E0,3E0,1E0,3E0,3E0,3E0,1E1,1E0,2.7E1],"tree_param":{"num_deleted":"0","num_feature":"7","num_nodes":"55","size_leaf_vector":"1"}},{"base_weights":[1.9039839E2,1.2124986E2,4.504425E4,-9.314931E1,1.153917E4,-2.9789932E2,9.743131E2,5.0501727E4,8.824013E3,-5.1524585E2,-4.9135704E0,7.071633E2,3.018019E3,2.8785676E4,1.5151031E4,5.908049E3,2.250076E4,-1.0830452E3,-4.409015E2,-1.2472924E2,1.4437799E2,-2.5554128E3,7.8274133E2,-1.2041958E4,4.884523E3,5.1231377E3,1.4059126E3,1.0602425E4,-4.9497E3,2.7137283E4,-6.00025E2,-6.939353E2,-2.950571E2,1.8909113E2,-1.4259717E2,2.2969826E1,-5.4005665E1,6.426617E2,1.4618313E1,-1.2594141E1,-1.5188545E3,1.4429832E3,1.924647E2,-1.1865E3,-4.6278813E3,1.4946542E2,3.8806184E3,2.389743E3,1.8992025E4,8.873732E2,-6.0173467E3,1.0168875E4,2.0505095E3],"categories":[],"categories_nodes":[],"categories_segments":[],"categories_sizes":[],"default_left":[0,0,0,0,0,0,0,0,0,0,0,0,0,0,0,0,0,0,0,0,0,0,0,0,0,0,0,0,0,0,0,0,0,0,0,0,0,0,0,0,0,0,0,0,0,0,0,0,0,0,0,0,0],"id":17,"left_children":[1,3,-1,5,7,9,11,13,15,17,19,21,23,-1,25,27,29,31,33,35,37,39,41,43,45,-1,-1,47,49,51,-1,-1,-1,-1,-1,-1,-1,-1,-1,-1,-1,-1,-1,-1,-1,-1,-1,-1,-1,-1,-1,-1,-1],"loss_changes":[4.4994978E10,1.0625363E10,0E0,9.31587E8,8.017528E9,2.2771517E8,3.7240506E8,6.579762E9,2.8980122E9,8.618509E7,2.727851E7,1.5192022E8,2.2794703E9,0E0,5.93856E5,3.314582E9,1.5310607E9,2.673824E7,6.729862E7,9.429376E6,1.296476E8,8.8019224E7,3.3523722E8,1.8530816E8,2.5008195E9,0E0,0E0,5.748956E9,2.448712E9,1.2777631E9,0E0,0E0,0E0,0E0,0E0,0E0,0E0,0E0,0E0,0E0,0E0,0E0,0E0,0E0,0E0,0E0,0E0,0E0,0E0,0E0,0E0,0E0,0E0],"parents":[2147483647,0,0,1,1,3,3,4,4,5,5,6,6,7,7,8,8,9,9,10,10,11,11,12,12,14,14,15,15,16,16,17,17,18,18,19,19,20,20,21,21,22,22,23,23,24,24,27,27,28,28,29,29],"right_children":[2,4,-1,6,8,10,12,14,16,18,20,22,24,-1,26,28,30,32,34,36,38,40,42,44,46,-1,-1,48,50,52,-1,-1,-1,-1,-1,-1,-1,-1,-1,-1,-1,-1,-1,-1,-1,-1,-1,-1,-1,-1,-1,-1,-1],"split_conditions":[5.963E6,1.742E6,4.504425E4,4.7637E5,7E3,2.345E5,1.0586E6,2.018E3,4.96E4,5.695E4,3.4505E5,2.01E3,1.7E4,2.8785676E4,2.02E3,3.6E4,3.015E6,3.015E4,6.365E4,2.5125E5,3.5175E5,6.8675E5,2.012E3,5.2E3,2.017E3,5.1231377E3,1.4059126E3,3.108E4,1.876E6,2.018E3,-6.00025E2,-6.939353E2,-2.950571E2,1.8909113E2,-1.4259717E2,2.2969826E1,-5.4005665E1,6.426617E2,1.4618313E1,-1.2594141E1,-1.5188545E3,1.4429832E3,1.924647E2,-1.1865E3,-4.6278813E3,1.4946542E2,3.8806184E3,2.389743E3,1.8992025E4,8.873732E2,-6.0173467E3,1.0168875E4,2.0505095E3],"split_indices":[1,1,0,1,2,1,1,0,2,1,1,0,2,0,0,2,1,1,1,1,1,1,0,2,0,0,0,2,1,0,0,0,0,0,0,0,0,0,0,0,0,0,0,0,0,0,0,0,0,0,0,0,0],"split_type":[0,0,0,0,0,0,0,0,0,0,0,0,0,0,0,0,0,0,0,0,0,0,0,0,0,0,0,0,0,0,0,0,0,0,0,0,0,0,0,0,0,0,0,0,0,0,0,0,0,0,0,0,0],"sum_hessian":[4.34E3,4.339E3,1E0,4.26E3,7.9E1,3.575E3,6.85E2,4E0,7.5E1,2.052E3,1.523E3,6.07E2,7.8E1,1E0,3E0,6.3E1,1.2E1,2.36E2,1.816E3,8.45E2,6.78E2,1.3E1,5.94E2,8E0,7E1,2E0,1E0,4.4E1,1.9E1,1E1,2E0,1.6E1,2.2E2,5.6E1,1.76E3,1.82E2,6.63E2,3E1,6.48E2,7E0,6E0,1.9E1,5.75E2,3E0,5E0,4.6E1,2.4E1,4.3E1,1E0,1.3E1,6E0,7E0,3E0],"tree_param":{"num_deleted":"0","num_feature":"7","num_nodes":"53","size_leaf_vector":"1"}},{"base_weights":[1.577502E2,9.897295E1,3.8287652E4,-4.2524414E1,1.0924281E4,-1.2932587E2,2.0593418E3,4.776405E4,7.1719136E3,-3.3863763E2,1.4474202E2,1.6912754E3,1.6911281E4,2.4467852E4,1.8925312E4,-3.8253438E3,1.1733648E4,-7.098118E2,-2.63579E2,6.892566E1,5.148387E2,2.1110376E3,-1.0198388E4,1.3317976E4,-2.1141377E3,6.77345E3,1.1950126E3,-1.1713988E4,1.12585E3,5.3764062E3,2.179366E4,-1.590385E2,-3.6875592E2,4.767727E2,-9.703842E1,1.4338931E1,3.8927402E2,-8.6071295E2,2.1031335E2,-8.364405E2,1.1702418E3,6.835179E2,-2.2514626E3,-1.462622E4,2.954894E3,1.4481101E4,4.0075066E3],"categories":[],"categories_nodes":[],"categories_segments":[],"categories_sizes":[],"default_left":[0,0,0,0,0,0,0,0,0,0,0,0,0,0,0,0,0,0,0,0,0,0,0,0,0,0,0,0,0,0,0,0,0,0,0,0,0,0,0,0,0,0,0,0,0,0,0],"id":18,"left_children":[1,3,-1,5,7,9,11,13,15,17,19,21,23,-1,25,27,29,31,33,35,37,39,-1,-1,-1,-1,-1,-1,41,43,45,-1,-1,-1,-1,-1,-1,-1,-1,-1,-1,-1,-1,-1,-1,-1,-1],"loss_changes":[3.2511023E10,6.648271E9,0E0,7.8204326E8,7.398677E9,2.3616598E8,9.007034E8,3.3295524E9,2.6535473E9,6.483773E7,4.999439E7,2.573356E9,2.9465416E9,0E0,1.2838554E8,2.834159E9,2.2491238E9,3.5931024E7,2.1609253E8,3.8385508E7,1.9293114E8,1.4664274E9,0E0,0E0,0E0,0E0,0E0,0E0,1.6630826E8,6.291537E9,2.4819318E9,0E0,0E0,0E0,0E0,0E0,0E0,0E0,0E0,0E0,0E0,0E0,0E0,0E0,0E0,0E0,0E0],"parents":[2147483647,0,0,1,1,3,3,4,4,5,5,6,6,7,7,8,8,9,9,10,10,11,11,12,12,14,14,15,15,16,16,17,17,18,18,19,19,20,20,21,21,28,28,29,29,30,30],"right_children":[2,4,-1,6,8,10,12,14,16,18,20,22,24,-1,26,28,30,32,34,36,38,40,-1,-1,-1,-1,-1,-1,42,44,46,-1,-1,-1,-1,-1,-1,-1,-1,-1,-1,-1,-1,-1,-1,-1,-1],"split_conditions":[5.963E6,1.876E6,3.8287652E4,8.71E5,9.8E3,2.68E5,1.31365E5,2.018E3,1.327E4,7.37E4,5.5945E5,1.3E5,2.013E3,2.4467852E4,2.02E3,2.546E6,2.019E3,6.365E4,8.04E4,2.02E3,2.011E3,2.014E3,-1.0198388E4,1.3317976E4,-2.1141377E3,6.77345E3,1.1950126E3,-1.1713988E4,2.019E3,2.1E4,2.546E6,-1.590385E2,-3.6875592E2,4.767727E2,-9.703842E1,1.4338931E1,3.8927402E2,-8.6071295E2,2.1031335E2,-8.364405E2,1.1702418E3,6.835179E2,-2.2514626E3,-1.462622E4,2.954894E3,1.4481101E4,4.0075066E3],"split_indices":[1,1,0,1,2,1,2,0,2,1,1,2,0,0,0,1,0,1,1,0,0,0,0,0,0,0,0,0,0,2,1,0,0,0,0,0,0,0,0,0,0,0,0,0,0,0,0],"split_type":[0,0,0,0,0,0,0,0,0,0,0,0,0,0,0,0,0,0,0,0,0,0,0,0,0,0,0,0,0,0,0,0,0,0,0,0,0,0,0,0,0,0,0,0,0,0,0],"sum_hessian":[4.34E3,4.339E3,1E0,4.284E3,5.5E1,4.115E3,1.69E2,4E0,5.1E1,2.333E3,1.782E3,1.66E2,3E0,1E0,3E0,1.5E1,3.6E1,3.91E2,1.942E3,1.48E3,3.02E2,1.65E2,1E0,1E0,2E0,2E0,1E0,1E0,1.4E1,2.3E1,1.3E1,2.92E2,9.9E1,6E1,1.882E3,1.456E3,2.4E1,1.5E1,2.87E2,4.4E1,1.21E2,1.3E1,1E0,1E0,2.2E1,2E0,1.1E1],"tree_param":{"num_deleted":"0","num_feature":"7","num_nodes":"47","size_leaf_vector":"1"}},{"base_weights":[1.2544244E2,7.547975E1,3.2544525E4,-2.9549652E1,8.110757E3,-1.2746945E2,9.4050464E2,3.992205E4,4.8960024E3,-1.4142052E2,3.0616912E3,1.9138263E2,2.6229E3,2.079765E4,1.52398125E4,1.6728523E4,1.6804375E3,-1.1073821E2,-6.365714E3,-1.0057875E4,1.1132171E4,2.4588013E2,-2.1947908E3,7.022969E3,-3.665017E2,5.41875E3,1.0157625E3,-4.4654253E3,2.1378324E4,-7.5859375E3,6.0959136E3,-6.389095E1,5.7066574E1,-1.2255088E3,-3.5803877E3,-8.8856255E1,-3.4906375E3,6.2046E3,1.4897203E3,3.1359175E1,5.314794E2,1.1873899E3,2.3121469E4,-4.1292148E2,7.097013E3,1.5699976E4,3.637225E3,4.1435815E3,-4.403206E3,9.308926E3,1.2291643E3],"categories":[],"categories_nodes":[],"categories_segments":[],"categories_sizes":[],"default_left":[0,0,0,0,0,0,0,0,0,0,0,0,0,0,0,0,0,0,0,0,0,0,0,0,0,0,0,0,0,0,0,0,0,0,0,0,0,0,0,0,0,0,0,0,0,0,0,0,0,0,0],"id":19,"left_children":[1,3,-1,5,7,9,11,13,15,17,19,21,23,-1,25,27,29,31,33,35,37,39,-1,41,43,-1,-1,-1,45,47,49,-1,-1,-1,-1,-1,-1,-1,-1,-1,-1,-1,-1,-1,-1,-1,-1,-1,-1,-1,-1],"loss_changes":[2.3492997E10,3.6629407E9,0E0,4.0714144E8,5.5314094E9,1.7364102E8,4.9480346E8,2.572206E9,1.9503969E9,7.397076E8,1.911946E9,1.1349186E8,1.5941564E9,0E0,7.26825E7,1.9351613E9,1.7646926E9,1.1877282E8,1.9256442E8,1.043529E8,5.450712E8,5.847421E7,0E0,1.0215213E10,1.8036228E9,0E0,0E0,0E0,2.2301507E9,2.3270994E9,1.3180867E9,0E0,0E0,0E0,0E0,0E0,0E0,0E0,0E0,0E0,0E0,0E0,0E0,0E0,0E0,0E0,0E0,0E0,0E0,0E0,0E0],"parents":[2147483647,0,0,1,1,3,3,4,4,5,5,6,6,7,7,8,8,9,9,10,10,11,11,12,12,14,14,15,15,16,16,17,17,18,18,19,19,20,20,21,21,23,23,24,24,28,28,29,29,30,30],"right_children":[2,4,-1,6,8,10,12,14,16,18,20,22,24,-1,26,28,30,32,34,36,38,40,-1,42,44,-1,-1,-1,46,48,50,-1,-1,-1,-1,-1,-1,-1,-1,-1,-1,-1,-1,-1,-1,-1,-1,-1,-1,-1,-1],"split_conditions":[5.963E6,1.876E6,3.2544525E4,1E0,9.8E3,1.0586E6,8.71E5,2.018E3,2.017E3,9.38E5,1.7E4,4E0,4.6957E4,2.079765E4,2.02E3,3.108E4,1E0,3.685E5,1E0,2.018E3,1.139E6,7.5375E5,-2.1947908E3,4.3235E4,1.31365E5,5.41875E3,1.0157625E3,-4.4654253E3,3.6E4,1E0,2.546E6,-6.389095E1,5.7066574E1,-1.2255088E3,-3.5803877E3,-8.8856255E1,-3.4906375E3,6.2046E3,1.4897203E3,3.1359175E1,5.314794E2,1.1873899E3,2.3121469E4,-4.1292148E2,7.097013E3,1.5699976E4,3.637225E3,4.1435815E3,-4.403206E3,9.308926E3,1.2291643E3],"split_indices":[1,1,0,5,2,1,1,0,0,1,2,6,2,0,0,2,4,1,4,0,1,1,0,2,2,0,0,0,2,3,1,0,0,0,0,0,0,0,0,0,0,0,0,0,0,0,0,0,0,0,0],"split_type":[0,0,0,0,0,0,0,0,0,0,0,0,0,0,0,0,0,0,0,0,0,0,0,0,0,0,0,0,0,0,0,0,0,0,0,0,0,0,0,0,0,0,0,0,0,0,0,0,0,0,0],"sum_hessian":[4.34E3,4.339E3,1E0,4.284E3,5.5E1,3.892E3,3.92E2,4E0,5.1E1,3.876E3,1.6E1,2.72E2,1.2E2,1E0,3E0,1E1,4.1E1,3.858E3,1.8E1,6E0,1E1,2.71E2,1E0,4.8E1,7.2E1,2E0,1E0,1E0,9E0,1.3E1,2.8E1,2.88E3,9.78E2,1.4E1,4E0,1E0,5E0,3E0,7E0,2.49E2,2.2E1,4.7E1,1E0,7E1,2E0,1E0,8E0,3E0,1E1,1E0,2.7E1],"tree_param":{"num_deleted":"0","num_feature":"7","num_nodes":"51","size_leaf_vector":"1"}},{"base_weights":[1.1397876E2,7.151216E1,2.7662852E4,1.9589052E1,1.1285925E4,-2.8960152E1,3.410549E3,3.8081938E4,4.317103E3,-1.7146675E1,-6.3071562E3,3.864755E2,1.7121205E4,1.7678025E4,1.1491417E4,-4.84025E3,6.625125E3,-6.347507E1,1.3548304E3,-2.0102824E4,1.2514219E4,3.326277E3,-6.8908E3,7.91493E3,8.0596787E3,4.307738E3,8.634E2,-5.3735004E2,-2.098125E3,-3.31475E3,2.5674001E3,-8.671566E1,1.2334943E1,3.504144E3,1.128649E2,-1.5635626E3,-6.7567783E3,-6.097688E2,5.4122E3,3.7938428E2,7.881075E3,-1.5371036E3,-4.744575E3,5.3694004E3,1.63425E2,-1.57755E3,8.5912506E1],"categories":[],"categories_nodes":[],"categories_segments":[],"categories_sizes":[],"default_left":[0,0,0,0,0,0,0,0,0,0,0,0,0,0,0,0,0,0,0,0,0,0,0,0,0,0,0,0,0,0,0,0,0,0,0,0,0,0,0,0,0,0,0,0,0,0,0],"id":20,"left_children":[1,3,-1,5,7,9,11,13,15,17,19,21,23,-1,25,27,29,31,33,35,37,39,41,-1,43,-1,-1,-1,-1,45,-1,-1,-1,-1,-1,-1,-1,-1,-1,-1,-1,-1,-1,-1,-1,-1,-1],"loss_changes":[1.6970984E10,2.5269056E9,0E0,7.1145805E8,3.570329E9,3.1591882E8,2.5225672E9,1.539946E9,3.913686E8,2.704766E8,2.3287987E9,1.1140018E9,7.105564E8,0E0,3.2776736E7,1.3737832E7,2.973431E8,9.712256E7,1.4001764E9,6.277837E7,3.5823693E8,1.7169795E9,1.5552653E8,0E0,5.0779008E8,0E0,0E0,0E0,0E0,2.250496E7,0E0,0E0,0E0,0E0,0E0,0E0,0E0,0E0,0E0,0E0,0E0,0E0,0E0,0E0,0E0,0E0,0E0],"parents":[2147483647,0,0,1,1,3,3,4,4,5,5,6,6,7,7,8,8,9,9,10,10,11,11,12,12,14,14,15,15,16,16,17,17,18,18,19,19,20,20,21,21,22,22,24,24,29,29],"right_children":[2,4,-1,6,8,10,12,14,16,18,20,22,24,-1,26,28,30,32,34,36,38,40,42,-1,44,-1,-1,-1,-1,46,-1,-1,-1,-1,-1,-1,-1,-1,-1,-1,-1,-1,-1,-1,-1,-1,-1],"split_conditions":[5.963E6,3.015E6,2.7662852E4,1.742E6,9.8E3,1.675E6,4.96E4,2.018E3,1.327E4,8.71E5,1E0,4.1988E4,2.017E3,1.7678025E4,2.019E3,2.019E3,2.018E3,1.5745E5,2.013E3,2.011E3,3.7605E4,4.0219E4,2.546E6,7.91493E3,5.7112E4,4.307738E3,8.634E2,-5.3735004E2,-2.098125E3,2.017E3,2.5674001E3,-8.671566E1,1.2334943E1,3.504144E3,1.128649E2,-1.5635626E3,-6.7567783E3,-6.097688E2,5.4122E3,3.7938428E2,7.881075E3,-1.5371036E3,-4.744575E3,5.3694004E3,1.63425E2,-1.57755E3,8.5912506E1],"split_indices":[1,1,0,1,2,1,2,0,2,1,4,2,0,0,0,0,0,1,0,0,2,2,1,0,2,0,0,0,0,0,0,0,0,0,0,0,0,0,0,0,0,0,0,0,0,0,0],"split_type":[0,0,0,0,0,0,0,0,0,0,0,0,0,0,0,0,0,0,0,0,0,0,0,0,0,0,0,0,0,0,0,0,0,0,0,0,0,0,0,0,0,0,0,0,0,0,0],"sum_hessian":[4.34E3,4.339E3,1E0,4.32E3,1.9E1,4.26E3,6E1,3E0,1.6E1,4.253E3,7E0,5E1,1E1,1E0,2E0,3E0,1.3E1,4.115E3,1.38E2,4E0,3E0,3.6E1,1.4E1,4E0,6E0,1E0,1E0,2E0,1E0,2E0,1.1E1,1.303E3,2.812E3,1.1E1,1.27E2,1E0,3E0,1E0,2E0,3.4E1,2E0,1.3E1,1E0,2E0,4E0,1E0,1E0],"tree_param":{"num_deleted":"0","num_feature":"7","num_nodes":"47","size_leaf_vector":"1"}},{"base_weights":[9.462166E1,5.8524567E1,2.35134E4,1.7289022E1,8.964537E3,-2.0264992E1,2.6402458E3,3.2369625E4,2.9301323E3,-1.1168549E1,-4.8547656E3,3.0930148E2,1.3207329E4,1.5026325E4,9.767667E3,-4.047125E3,4.7143394E3,-7.120242E1,6.344752E2,-1.573605E4,9.960531E3,3.4640977E3,-4.7538374E3,1.70245E4,2.2711562E3,3.6615752E3,7.33875E2,-4.2990002E2,-1.783425E3,-2.8175833E3,1.8613376E3,-2.3266266E1,1.2169875E3,3.6779976E1,6.540342E2,-1.3290188E3,-5.23651E3,-5.183063E2,4.32975E3,2.1545927E2,1.3288051E4,3.8517053E2,-4.845059E3,1.72125E2,6.723738E3,-6.1485004E2,1.3183625E3,-1.340925E3,7.3012505E1],"categories":[],"categories_nodes":[],"categories_segments":[],"categories_sizes":[],"default_left":[0,0,0,0,0,0,0,0,0,0,0,0,0,0,0,0,0,0,0,0,0,0,0,0,0,0,0,0,0,0,0,0,0,0,0,0,0,0,0,0,0,0,0,0,0,0,0,0,0],"id":21,"left_children":[1,3,-1,5,7,9,11,13,15,17,19,21,23,-1,25,27,29,31,33,35,37,39,41,43,45,-1,-1,-1,-1,47,-1,-1,-1,-1,-1,-1,-1,-1,-1,-1,-1,-1,-1,-1,-1,-1,-1,-1,-1],"loss_changes":[1.2262221E10,1.5936852E9,0E0,4.2568307E8,2.7298683E9,1.8733075E8,1.4984233E9,1.1126164E9,2.3071034E8,1.6493234E8,1.4464151E9,8.310995E8,4.2053222E8,0E0,2.3682624E7,1.1323684E7,1.7461005E8,1.0238555E8,2.861378E8,1.984704E7,2.3401226E8,3.555819E9,1.3969002E9,6.962286E8,4.570429E7,0E0,0E0,0E0,0E0,1.6259468E7,0E0,0E0,0E0,0E0,0E0,0E0,0E0,0E0,0E0,0E0,0E0,0E0,0E0,0E0,0E0,0E0,0E0,0E0,0E0],"parents":[2147483647,0,0,1,1,3,3,4,4,5,5,6,6,7,7,8,8,9,9,10,10,11,11,12,12,14,14,15,15,16,16,17,17,18,18,19,19,20,20,21,21,22,22,23,23,24,24,29,29],"right_children":[2,4,-1,6,8,10,12,14,16,18,20,22,24,-1,26,28,30,32,34,36,38,40,42,44,46,-1,-1,-1,-1,48,-1,-1,-1,-1,-1,-1,-1,-1,-1,-1,-1,-1,-1,-1,-1,-1,-1,-1,-1],"split_conditions":[5.963E6,3.015E6,2.35134E4,1.742E6,9.8E3,1.675E6,4.96E4,2.018E3,1.327E4,1E0,1E0,3.6E4,2.018E3,1.5026325E4,2.019E3,2.019E3,2.018E3,1.206E6,8.71E5,2.011E3,3.7605E4,3.108E4,1.876E6,1.876E6,1E0,3.6615752E3,7.33875E2,-4.2990002E2,-1.783425E3,2.017E3,1.8613376E3,-2.3266266E1,1.2169875E3,3.6779976E1,6.540342E2,-1.3290188E3,-5.23651E3,-5.183063E2,4.32975E3,2.1545927E2,1.3288051E4,3.8517053E2,-4.845059E3,1.72125E2,6.723738E3,-6.1485004E2,1.3183625E3,-1.340925E3,7.3012505E1],"split_indices":[1,1,0,1,2,1,2,0,2,5,4,2,0,0,0,0,0,1,1,0,2,2,1,1,3,0,0,0,0,0,0,0,0,0,0,0,0,0,0,0,0,0,0,0,0,0,0,0,0],"split_type":[0,0,0,0,0,0,0,0,0,0,0,0,0,0,0,0,0,0,0,0,0,0,0,0,0,0,0,0,0,0,0,0,0,0,0,0,0,0,0,0,0,0,0,0,0,0,0,0,0],"sum_hessian":[4.34E3,4.339E3,1E0,4.32E3,1.9E1,4.26E3,6E1,3E0,1.6E1,4.253E3,7E0,5E1,1E1,1E0,2E0,3E0,1.3E1,3.892E3,3.61E2,4E0,3E0,3.1E1,1.9E1,7E0,3E0,1E0,1E0,2E0,1E0,2E0,1.1E1,3.887E3,5E0,2.72E2,8.9E1,1E0,3E0,1E0,2E0,3E1,1E0,1.3E1,6E0,2E0,5E0,1E0,2E0,1E0,1E0],"tree_param":{"num_deleted":"0","num_feature":"7","num_nodes":"49","size_leaf_vector":"1"}},{"base_weights":[7.938944E1,4.8706696E1,1.9986375E4,1.5755741E1,7.165325E3,-1.4386281E1,2.1209917E3,2.7514125E4,1.9558823E3,-7.3716664E0,-3.7426094E3,-3.874228E3,4.338719E3,1.2772351E4,8.3025E3,-3.38625E3,3.3425E3,-4.9532196E1,4.460491E2,-1.232835E4,7.9252188E3,1.4650626E2,-1.19536875E4,1.9881191E3,1.0975326E4,3.11235E3,6.23775E2,-3.4390002E2,-1.5159E3,-2.3949167E3,1.3494938E3,-1.0204793E1,-5.2766736E2,2.5449641E2,-3.313871E2,-4.3379062E3,-5.7045E2,-4.4056876E2,3.4638E3,2.5245503E3,-7.2725723E3,5.9820254E3,1.8782104E2,-1.139775E3,6.2062504E1],"categories":[],"categories_nodes":[],"categories_segments":[],"categories_sizes":[],"default_left":[0,0,0,0,0,0,0,0,0,0,0,0,0,0,0,0,0,0,0,0,0,0,0,0,0,0,0,0,0,0,0,0,0,0,0,0,0,0,0,0,0,0,0,0,0],"id":22,"left_children":[1,3,-1,5,7,9,11,13,15,17,19,21,23,-1,25,27,29,31,33,35,37,-1,39,41,-1,-1,-1,-1,-1,43,-1,-1,-1,-1,-1,-1,-1,-1,-1,-1,-1,-1,-1,-1,-1],"loss_changes":[8.859718E9,1.01761434E9,0E0,2.742242E8,2.0663039E9,1.1140629E8,8.278509E8,8.038623E8,1.3724595E8,8.134353E7,8.991204E8,6.050418E8,3.3381192E9,0E0,1.7112544E7,9.1411E6,1.0361238E8,1.03193384E8,2.2674998E8,8.362061E7,1.5300734E8,0E0,1.7057815E9,1.0389287E9,0E0,0E0,0E0,0E0,0E0,1.1747318E7,0E0,0E0,0E0,0E0,0E0,0E0,0E0,0E0,0E0,0E0,0E0,0E0,0E0,0E0,0E0],"parents":[2147483647,0,0,1,1,3,3,4,4,5,5,6,6,7,7,8,8,9,9,10,10,11,11,12,12,14,14,15,15,16,16,17,17,18,18,19,19,20,20,22,22,23,23,29,29],"right_children":[2,4,-1,6,8,10,12,14,16,18,20,22,24,-1,26,28,30,32,34,36,38,-1,40,42,-1,-1,-1,-1,-1,44,-1,-1,-1,-1,-1,-1,-1,-1,-1,-1,-1,-1,-1,-1,-1],"split_conditions":[5.963E6,3.015E6,1.9986375E4,1.742E6,9.8E3,1.675E6,1.051E4,2.018E3,1.327E4,1E0,1E0,2.019E3,2.019E3,1.2772351E4,2.019E3,2.019E3,2.018E3,9.38E5,2.018E3,7.1E4,3.7605E4,1.4650626E2,5.2E3,1.327E4,1.0975326E4,3.11235E3,6.23775E2,-3.4390002E2,-1.5159E3,2.017E3,1.3494938E3,-1.0204793E1,-5.2766736E2,2.5449641E2,-3.313871E2,-4.3379062E3,-5.7045E2,-4.4056876E2,3.4638E3,2.5245503E3,-7.2725723E3,5.9820254E3,1.8782104E2,-1.139775E3,6.2062504E1],"split_indices":[1,1,0,1,2,1,2,0,2,5,4,0,0,0,0,0,0,1,0,2,2,0,2,2,0,0,0,0,0,0,0,0,0,0,0,0,0,0,0,0,0,0,0,0,0],"split_type":[0,0,0,0,0,0,0,0,0,0,0,0,0,0,0,0,0,0,0,0,0,0,0,0,0,0,0,0,0,0,0,0,0,0,0,0,0,0,0,0,0,0,0,0,0],"sum_hessian":[4.34E3,4.339E3,1E0,4.32E3,1.9E1,4.26E3,6E1,3E0,1.6E1,4.253E3,7E0,1.6E1,4.4E1,1E0,2E0,3E0,1.3E1,3.892E3,3.61E2,4E0,3E0,1.1E1,5E0,4.2E1,2E0,1E0,1E0,2E0,1E0,2E0,1.1E1,3.858E3,3.4E1,2.87E2,7.4E1,3E0,1E0,1E0,2E0,2E0,3E0,2E0,4E1,1E0,1E0],"tree_param":{"num_deleted":"0","num_feature":"7","num_nodes":"45","size_leaf_vector":"1"}},{"base_weights":[6.592882E1,3.9848156E1,1.69884E4,1.3354722E1,5.7617627E3,-1.0655743E1,1.6903258E3,2.3387E4,1.2757206E3,-1.5775717E2,1.3466678E2,-8.447059E1,9.765262E3,1.0856476E4,7.0571665E3,-2.83525E3,2.3591606E3,-1.15036446E2,-8.330262E3,1.0072351E2,4.9456333E3,4.5187E3,-1.01010205E3,1.7069406E4,4.8925312E3,2.6455127E3,5.302125E2,-2.751E2,-1.2885E3,-9.6881256E2,3.0374614E3,-3.7625893E1,1.6133625E3,-4.7658335E3,5.1342124E3,1.5687015E1,2.6923865E2,5.717242E3,-4.171404E3,1.8404036E2,-1.4193276E3,6.1048003E3,1.0844438E3,8.17375E1,3.75055E3,5.27625E1,9.783813E2],"categories":[],"categories_nodes":[],"categories_segments":[],"categories_sizes":[],"default_left":[0,0,0,0,0,0,0,0,0,0,0,0,0,0,0,0,0,0,0,0,0,0,0,0,0,0,0,0,0,0,0,0,0,0,0,0,0,0,0,0,0,0,0,0,0,0,0],"id":23,"left_children":[1,3,-1,5,7,9,11,13,15,17,19,21,23,-1,25,27,29,31,33,35,37,-1,39,41,43,-1,-1,-1,-1,-1,45,-1,-1,-1,-1,-1,-1,-1,-1,-1,-1,-1,-1,-1,-1,-1,-1],"loss_changes":[6.401484E9,6.578374E8,0E0,1.7400245E8,1.5515158E9,9.110929E7,8.750383E8,5.807826E8,8.240665E7,7.3851046E8,3.4961696E8,7.3025274E8,3.0798982E8,0E0,1.2363904E7,7.262146E6,6.2879016E7,1.2090201E8,2.3866624E9,8.214723E7,4.2551762E9,0E0,2.9892544E8,1.0296128E8,2.77838E8,0E0,0E0,0E0,0E0,0E0,7.752272E6,0E0,0E0,0E0,0E0,0E0,0E0,0E0,0E0,0E0,0E0,0E0,0E0,0E0,0E0,0E0,0E0],"parents":[2147483647,0,0,1,1,3,3,4,4,5,5,6,6,7,7,8,8,9,9,10,10,11,11,12,12,14,14,15,15,16,16,17,17,18,18,19,19,20,20,22,22,23,23,24,24,30,30],"right_children":[2,4,-1,6,8,10,12,14,16,18,20,22,24,-1,26,28,30,32,34,36,38,-1,40,42,44,-1,-1,-1,-1,-1,46,-1,-1,-1,-1,-1,-1,-1,-1,-1,-1,-1,-1,-1,-1,-1,-1],"split_conditions":[5.963E6,3.015E6,1.69884E4,1.742E6,9.8E3,2.014E3,4.96E4,2.018E3,1.327E4,1.206E6,1.3165494E6,1E0,5.7112E4,1.0856476E4,2.019E3,2.019E3,2.017E3,1.139E6,6.7E4,8.04E5,1E0,4.5187E3,4.1988E4,2.018E3,1E0,2.6455127E3,5.302125E2,-2.751E2,-1.2885E3,-9.6881256E2,2.018E3,-3.7625893E1,1.6133625E3,-4.7658335E3,5.1342124E3,1.5687015E1,2.6923865E2,5.717242E3,-4.171404E3,1.8404036E2,-1.4193276E3,6.1048003E3,1.0844438E3,8.17375E1,3.75055E3,5.27625E1,9.783813E2],"split_indices":[1,1,0,1,2,0,2,0,2,1,1,3,2,0,0,0,0,1,2,1,4,0,2,0,6,0,0,0,0,0,0,0,0,0,0,0,0,0,0,0,0,0,0,0,0,0,0],"split_type":[0,0,0,0,0,0,0,0,0,0,0,0,0,0,0,0,0,0,0,0,0,0,0,0,0,0,0,0,0,0,0,0,0,0,0,0,0,0,0,0,0,0,0,0,0,0,0],"sum_hessian":[4.34E3,4.339E3,1E0,4.32E3,1.9E1,4.26E3,6E1,3E0,1.6E1,2.117E3,2.143E3,5E1,1E1,1E0,2E0,3E0,1.3E1,2.107E3,1E1,2.129E3,1.4E1,2E0,4.8E1,3E0,7E0,1E0,1E0,2E0,1E0,1E0,1.2E1,2.104E3,3E0,8E0,2E0,2.008E3,1.21E2,8E0,6E0,3.4E1,1.4E1,2E0,1E0,5E0,2E0,1E0,1.1E1],"tree_param":{"num_deleted":"0","num_feature":"7","num_nodes":"47","size_leaf_vector":"1"}},{"base_weights":[5.711426E1,3.494597E1,1.4440126E4,1.3531938E1,4.6597E3,-6.5741014E0,1.4177664E3,1.9878938E4,8.0460297E2,-2.6522238E2,3.7625294E1,9.2247E3,-1.1083173E2,9.228E3,5.9985835E3,-2.375625E3,1.6557678E3,-2.497733E2,-1.0108875E3,-1.2941507E2,8.670303E1,-3.9406125E3,1.3168639E4,8.0989375E3,-7.787551E2,2.2486875E3,4.5067502E2,-2.2010002E2,-1.0952251E3,-8.2350006E2,2.2054424E3,-4.544975E2,-6.669304E1,1.0635756E0,-6.5966406E3,1.4441172E1,1.6415813E3,6.837857E2,1.0256275E4,3.61495E3,-5.630625E2,6.776865E2,-1.1355945E3,4.4850002E1,7.0929376E2],"categories":[],"categories_nodes":[],"categories_segments":[],"categories_sizes":[],"default_left":[0,0,0,0,0,0,0,0,0,0,0,0,0,0,0,0,0,0,0,0,0,0,0,0,0,0,0,0,0,0,0,0,0,0,0,0,0,0,0,0,0,0,0,0,0],"id":24,"left_children":[1,3,-1,5,7,9,11,13,15,17,19,21,23,-1,25,27,29,31,-1,33,35,-1,37,39,41,-1,-1,-1,-1,-1,43,-1,-1,-1,-1,-1,-1,-1,-1,-1,-1,-1,-1,-1,-1],"loss_changes":[4.6248556E9,4.297472E8,0E0,1.2200667E8,1.1574382E9,4.8722148E7,7.289759E8,4.196156E8,4.995076E7,2.8989572E7,2.9851804E7,1.0548426E9,2.9144893E8,0E0,8.933304E6,5.696376E6,3.991979E7,2.1206288E7,0E0,2.4036959E9,5.8416454E8,0E0,1.9820212E9,1.8026958E8,4.5607066E8,0E0,0E0,0E0,0E0,0E0,3.8927E6,0E0,0E0,0E0,0E0,0E0,0E0,0E0,0E0,0E0,0E0,0E0,0E0,0E0,0E0],"parents":[2147483647,0,0,1,1,3,3,4,4,5,5,6,6,7,7,8,8,9,9,10,10,11,11,12,12,14,14,15,15,16,16,17,17,19,19,20,20,22,22,23,23,24,24,30,30],"right_children":[2,4,-1,6,8,10,12,14,16,18,20,22,24,-1,26,28,30,32,-1,34,36,-1,38,40,42,-1,-1,-1,-1,-1,44,-1,-1,-1,-1,-1,-1,-1,-1,-1,-1,-1,-1,-1,-1],"split_conditions":[5.963E6,3.015E6,1.4440126E4,1.742E6,9.8E3,2.009E3,2.017E3,2.018E3,1.327E4,6.8675E5,3E4,3.108E4,1E0,9.228E3,2.019E3,2.019E3,2.017E3,3.015E4,-1.0108875E3,1.3165494E6,1.3165494E6,-3.9406125E3,2.015E3,2.546E6,1.876E6,2.2486875E3,4.5067502E2,-2.2010002E2,-1.0952251E3,-8.2350006E2,2.018E3,-4.544975E2,-6.669304E1,1.0635756E0,-6.5966406E3,1.4441172E1,1.6415813E3,6.837857E2,1.0256275E4,3.61495E3,-5.630625E2,6.776865E2,-1.1355945E3,4.4850002E1,7.0929376E2],"split_indices":[1,1,0,1,2,0,0,0,2,1,2,2,3,0,0,0,0,1,0,1,1,0,0,1,1,0,0,0,0,0,0,0,0,0,0,0,0,0,0,0,0,0,0,0,0],"split_type":[0,0,0,0,0,0,0,0,0,0,0,0,0,0,0,0,0,0,0,0,0,0,0,0,0,0,0,0,0,0,0,0,0,0,0,0,0,0,0,0,0,0,0,0,0],"sum_hessian":[4.34E3,4.339E3,1E0,4.32E3,1.9E1,4.26E3,6E1,3E0,1.6E1,6.21E2,3.639E3,9E0,5.1E1,1E0,2E0,3E0,1.3E1,6.19E2,2E0,8.26E2,2.813E3,1E0,8E0,3E0,4.8E1,1E0,1E0,2E0,1E0,1E0,1.2E1,1.2E1,6.07E2,8.22E2,4E0,2.794E3,1.9E1,6E0,2E0,2E0,1E0,2.4E1,2.4E1,1E0,1.1E1],"tree_param":{"num_deleted":"0","num_feature":"7","num_nodes":"45","size_leaf_vector":"1"}},{"base_weights":[4.6455784E1,2.7612226E1,1.2274125E4,1.0196323E1,3.7889375E3,-6.119206E0,1.149709E3,1.6897062E4,4.8179413E2,-6.9224507E-1,-2.8911406E3,7.15725E3,-2.7697115E1,7.8438003E3,5.09875E3,-1.9918125E3,1.154125E3,-5.258391E1,1.9522723E2,-1.1305375E4,8.3494375E3,-3.3495376E3,1.0433639E4,1.0189604E3,-1.0804407E3,1.9113751E3,3.830625E2,-1.761E2,-9.3093756E2,-6.9997504E2,1.6018654E3,-1.3302011E1,-3.327797E2,1.2060312E2,-9.001947E1,-1.035E1,-4.234341E3,4.9875E0,3.3364502E3,5.079643E2,8.205025E3,-4.2268298E2,2.9424167E3,3.81375E1,5.1425E2],"categories":[],"categories_nodes":[],"categories_segments":[],"categories_sizes":[],"default_left":[0,0,0,0,0,0,0,0,0,0,0,0,0,0,0,0,0,0,0,0,0,0,0,0,0,0,0,0,0,0,0,0,0,0,0,0,0,0,0,0,0,0,0,0,0],"id":25,"left_children":[1,3,-1,5,7,9,11,13,15,17,19,21,23,-1,25,27,29,31,33,35,37,-1,39,41,-1,-1,-1,-1,-1,-1,43,-1,-1,-1,-1,-1,-1,-1,-1,-1,-1,-1,-1,-1,-1],"loss_changes":[3.3418104E9,2.8426125E8,0E0,8.0342E7,8.5886803E8,6.671204E7,4.3167053E8,3.0317555E8,3.0571194E7,4.3258932E7,8.510404E8,7.168051E8,1.9817653E8,0E0,6.45472E6,4.423208E6,2.5597694E7,2.925514E7,9.137512E7,1.5781773E8,9.221142E7,0E0,1.2844027E9,8.887211E8,0E0,0E0,0E0,0E0,0E0,0E0,1.935084E6,0E0,0E0,0E0,0E0,0E0,0E0,0E0,0E0,0E0,0E0,0E0,0E0,0E0,0E0],"parents":[2147483647,0,0,1,1,3,3,4,4,5,5,6,6,7,7,8,8,9,9,10,10,11,11,12,12,14,14,15,15,16,16,17,17,18,18,19,19,20,20,22,22,23,23,30,30],"right_children":[2,4,-1,6,8,10,12,14,16,18,20,22,24,-1,26,28,30,32,34,36,38,-1,40,42,-1,-1,-1,-1,-1,-1,44,-1,-1,-1,-1,-1,-1,-1,-1,-1,-1,-1,-1,-1,-1],"split_conditions":[5.963E6,3.015E6,1.2274125E4,1.742E6,9.8E3,1.675E6,2.017E3,2.018E3,1.327E4,4.355E5,1E0,3.108E4,2E0,7.8438003E3,2.019E3,2.019E3,2.017E3,4.221E5,6.35E4,2.011E3,3.7605E4,-3.3495376E3,2.015E3,4.0219E4,-1.0804407E3,1.9113751E3,3.830625E2,-1.761E2,-9.3093756E2,-6.9997504E2,2.018E3,-1.3302011E1,-3.327797E2,1.2060312E2,-9.001947E1,-1.035E1,-4.234341E3,4.9875E0,3.3364502E3,5.079643E2,8.205025E3,-4.2268298E2,2.9424167E3,3.81375E1,5.1425E2],"split_indices":[1,1,0,1,2,1,0,0,2,1,4,2,4,0,0,0,0,1,2,0,2,0,0,2,0,0,0,0,0,0,0,0,0,0,0,0,0,0,0,0,0,0,0,0,0],"split_type":[0,0,0,0,0,0,0,0,0,0,0,0,0,0,0,0,0,0,0,0,0,0,0,0,0,0,0,0,0,0,0,0,0,0,0,0,0,0,0,0,0,0,0,0,0],"sum_hessian":[4.34E3,4.339E3,1E0,4.32E3,1.9E1,4.26E3,6E1,3E0,1.6E1,4.253E3,7E0,9E0,5.1E1,1E0,2E0,3E0,1.3E1,3.363E3,8.9E2,4E0,3E0,1E0,8E0,4E1,1.1E1,1E0,1E0,2E0,1E0,1E0,1.2E1,3.338E3,2.5E1,6.28E2,2.62E2,1E0,3E0,1E0,2E0,6E0,2E0,3.2E1,8E0,1E0,1.1E1],"tree_param":{"num_deleted":"0","num_feature":"7","num_nodes":"45","size_leaf_vector":"1"}},{"base_weights":[3.8678684E1,2.2661442E1,1.0433025E4,8.429162E0,3.0964126E3,-4.5701046E0,9.163217E2,1.43624375E4,2.6344116E2,-5.59377E-1,-2.1367031E3,5.5464E3,8.300481E0,6.6672E3,4.3339165E3,-1.6710625E3,7.973393E2,-8.256449E0,9.275036E2,-8.762675E3,6.6799375E3,-2.8471125E3,8.271639E3,2.768825E3,-1.6649962E3,1.62465E3,3.2561252E2,-1.4090001E2,-7.9128754E2,-5.9497504E2,1.1637885E3,-2.4535965E1,6.595348E1,2.4568462E3,-2.4623838E3,-8.793751E0,-3.2816064E3,4.2375E0,2.6691501E3,8.4699E3,6.742031E2,-6.027574E2,6.7149565E3,-9.6507776E2,7.1995127E3,3.24E1,3.7283127E2],"categories":[],"categories_nodes":[],"categories_segments":[],"categories_sizes":[],"default_left":[0,0,0,0,0,0,0,0,0,0,0,0,0,0,0,0,0,0,0,0,0,0,0,0,0,0,0,0,0,0,0,0,0,0,0,0,0,0,0,0,0,0,0,0,0,0,0],"id":26,"left_children":[1,3,-1,5,7,9,11,13,15,17,19,21,23,-1,25,27,29,31,33,35,37,-1,39,41,43,-1,-1,-1,-1,-1,45,-1,-1,-1,-1,-1,-1,-1,-1,-1,-1,-1,-1,-1,-1,-1,-1],"loss_changes":[2.4145792E9,1.8983365E8,0E0,5.1000356E7,6.345429E8,3.6436336E7,2.5641075E8,2.1904237E8,1.8890478E7,3.039554E7,5.2588464E8,4.8828896E8,2.4480726E8,0E0,4.662856E6,3.406091E6,1.6573309E7,7.079716E7,2.3891707E9,9.469891E7,5.8992864E7,0E0,1.0188289E9,1.9193268E9,1.3915165E9,0E0,0E0,0E0,0E0,0E0,9.49834E5,0E0,0E0,0E0,0E0,0E0,0E0,0E0,0E0,0E0,0E0,0E0,0E0,0E0,0E0,0E0,0E0],"parents":[2147483647,0,0,1,1,3,3,4,4,5,5,6,6,7,7,8,8,9,9,10,10,11,11,12,12,14,14,15,15,16,16,17,17,18,18,19,19,20,20,22,22,23,23,24,24,30,30],"right_children":[2,4,-1,6,8,10,12,14,16,18,20,22,24,-1,26,28,30,32,34,36,38,-1,40,42,44,-1,-1,-1,-1,-1,46,-1,-1,-1,-1,-1,-1,-1,-1,-1,-1,-1,-1,-1,-1,-1,-1],"split_conditions":[5.963E6,3.015E6,1.0433025E4,1.742E6,9.8E3,1.675E6,2.017E3,2.018E3,1.327E4,1.206E6,1E0,3.108E4,1.9E4,6.6672E3,2.019E3,2.019E3,2.017E3,1E0,1E0,2.011E3,3.7605E4,-2.8471125E3,3.6E4,1.051E4,2.019E3,1.62465E3,3.2561252E2,-1.4090001E2,-7.9128754E2,-5.9497504E2,2.018E3,-2.4535965E1,6.595348E1,2.4568462E3,-2.4623838E3,-8.793751E0,-3.2816064E3,4.2375E0,2.6691501E3,8.4699E3,6.742031E2,-6.027574E2,6.7149565E3,-9.6507776E2,7.1995127E3,3.24E1,3.7283127E2],"split_indices":[1,1,0,1,2,1,0,0,2,1,4,2,2,0,0,0,0,4,4,0,2,0,2,2,0,0,0,0,0,0,0,0,0,0,0,0,0,0,0,0,0,0,0,0,0,0,0],"split_type":[0,0,0,0,0,0,0,0,0,0,0,0,0,0,0,0,0,0,0,0,0,0,0,0,0,0,0,0,0,0,0,0,0,0,0,0,0,0,0,0,0,0,0,0,0,0,0],"sum_hessian":[4.34E3,4.339E3,1E0,4.32E3,1.9E1,4.26E3,6E1,3E0,1.6E1,4.253E3,7E0,9E0,5.1E1,1E0,2E0,3E0,1.3E1,4.219E3,3.4E1,4E0,3E0,1E0,8E0,1.9E1,3.2E1,1E0,1E0,2E0,1E0,1E0,1.2E1,3.191E3,1.028E3,1.9E1,1.5E1,1E0,3E0,1E0,2E0,1E0,7E0,1.6E1,3E0,3.1E1,1E0,1E0,1.1E1],"tree_param":{"num_deleted":"0","num_feature":"7","num_nodes":"47","size_leaf_vector":"1"}},{"base_weights":[3.5365005E1,2.175092E1,8.868075E3,-3.3368065E0,1.3577141E3,-1.975659E2,2.5502743E1,1.23927E4,6.1386346E2,2.4913301E1,-1.2011963E3,-2.8890558E2,4.742243E1,1.50295625E4,2.767875E2,2.754206E2,2.62725E3,-1.2000408E2,1.1220458E3,-5.8215063E2,-1.340478E2,-1.311792E2,-7.7389E3,1.1689119E1,4.9411285E2,1.3271813E3,5.1270376E3,-2.1539028E3,1.0377434E3,-5.6320045E1,1.417983E2,-9.775391E1,-2.9796728E1,-7.246831E1,2.5787751E3,-2.8013906E3,-2.0139375E2,7.8620286E0,-4.439371E2,1.2337401E3,-1.7192244E1,6.8150006E2,-5.463394E3,3.894225E3,-3.2560616E1],"categories":[],"categories_nodes":[],"categories_segments":[],"categories_sizes":[],"default_left":[0,0,0,0,0,0,0,0,0,0,0,0,0,0,0,0,0,0,0,0,0,0,0,0,0,0,0,0,0,0,0,0,0,0,0,0,0,0,0,0,0,0,0,0,0],"id":27,"left_children":[1,3,-1,5,7,9,11,13,15,17,19,21,23,25,-1,27,-1,29,-1,-1,31,33,35,37,39,-1,-1,41,43,-1,-1,-1,-1,-1,-1,-1,-1,-1,-1,-1,-1,-1,-1,-1,-1],"loss_changes":[1.7442408E9,1.4546518E8,0E0,2.3872944E7,6.4906304E8,1.23061E8,2.5588916E7,1.3735834E8,2.0705584E8,2.4380688E8,7.863477E7,2.8334947E8,5.538142E7,1.1808576E7,0E0,1.3927792E8,0E0,1.759014E7,0E0,0E0,2.4736781E5,2.3134486E8,5.0239104E7,6.963077E7,5.130108E8,0E0,0E0,1.3205074E9,7.817397E8,0E0,0E0,0E0,0E0,0E0,0E0,0E0,0E0,0E0,0E0,0E0,0E0,0E0,0E0,0E0,0E0],"parents":[2147483647,0,0,1,1,3,3,4,4,5,5,6,6,7,7,8,8,9,9,10,10,11,11,12,12,13,13,15,15,17,17,20,20,21,21,22,22,23,23,24,24,27,27,28,28],"right_children":[2,4,-1,6,8,10,12,14,16,18,20,22,24,26,-1,28,-1,30,-1,-1,32,34,36,38,40,-1,-1,42,44,-1,-1,-1,-1,-1,-1,-1,-1,-1,-1,-1,-1,-1,-1,-1,-1],"split_conditions":[5.963E6,1.742E6,8.868075E3,8.71E4,7E3,8.04E4,1.051E4,2.02E3,1E0,7.704933E4,8.107E4,1.139E6,6.7E5,1.876E6,2.767875E2,1.051E4,2.62725E3,7.37E4,1.1220458E3,-5.8215063E2,2.005E3,9.983E5,1.206E6,6.365E5,2.1E4,1.3271813E3,5.1270376E3,2.019E3,1.9E4,-5.6320045E1,1.417983E2,-9.775391E1,-2.9796728E1,-7.246831E1,2.5787751E3,-2.8013906E3,-2.0139375E2,7.8620286E0,-4.439371E2,1.2337401E3,-1.7192244E1,6.8150006E2,-5.463394E3,3.894225E3,-3.2560616E1],"split_indices":[1,1,0,1,2,1,2,0,6,1,1,1,1,1,0,2,0,1,0,0,0,1,1,1,2,0,0,0,2,0,0,0,0,0,0,0,0,0,0,0,0,0,0,0,0],"split_type":[0,0,0,0,0,0,0,0,0,0,0,0,0,0,0,0,0,0,0,0,0,0,0,0,0,0,0,0,0,0,0,0,0,0,0,0,0,0,0,0,0,0,0,0,0],"sum_hessian":[4.34E3,4.339E3,1E0,4.26E3,7.9E1,5.5E2,3.71E3,4E0,7.5E1,4.51E2,9.9E1,2.41E2,3.469E3,3E0,1E0,7.3E1,2E0,4.35E2,1.6E1,5.8E1,4.1E1,2.37E2,4E0,3.213E3,2.56E2,1E0,2E0,1.7E1,5.6E1,3.91E2,4.4E1,5E0,3.6E1,2.35E2,2E0,3E0,1E0,3.183E3,3E1,3.3E1,2.23E2,1.4E1,3E0,4E0,5.2E1],"tree_param":{"num_deleted":"0","num_feature":"7","num_nodes":"45","size_leaf_vector":"1"}},{"base_weights":[2.8918524E1,1.734627E1,7.5378755E3,-2.1553771E0,1.0558359E3,-1.6293695E2,3.754673E1,1.0021125E4,4.521217E2,-6.227118E1,-1.70422E4,1.2966123E1,4.2131436E3,4.8981E3,4.3629062E3,1.803142E2,2.1018E3,-9.059184E1,2.562736E3,-2.1647375E3,-6.356363E3,1.8860682E1,-1.8042727E3,1.9680334E4,-7.7383438E3,1.5883126E3,2.3527501E2,-4.2767E3,4.9609644E2,-1.4654733E1,-1.1706918E3,2.3608923E3,-5.983875E3,2.6653938E0,1.01666254E3,2.104725E3,-5.697975E3,2.1390703E3,1.801217E4,3.22299E3,-5.4966235E3,9.44625E1,-3.3964502E3,3.1927253E3,1.2350736E1],"categories":[],"categories_nodes":[],"categories_segments":[],"categories_sizes":[],"default_left":[0,0,0,0,0,0,0,0,0,0,0,0,0,0,0,0,0,0,0,0,0,0,0,0,0,0,0,0,0,0,0,0,0,0,0,0,0,0,0,0,0,0,0,0,0],"id":28,"left_children":[1,3,-1,5,7,9,11,13,15,17,19,21,23,-1,25,27,-1,29,31,-1,-1,33,35,37,39,-1,-1,41,43,-1,-1,-1,-1,-1,-1,-1,-1,-1,-1,-1,-1,-1,-1,-1,-1],"loss_changes":[1.2603324E9,8.789707E7,0E0,2.7205648E7,4.28467E8,1.4330332E9,3.507645E8,1.0716694E8,1.3412262E8,6.2679404E7,5.079821E7,3.6443516E7,3.8494116E9,0E0,9.18152E6,1.0627266E8,0E0,1.3219003E8,1.2320471E9,0E0,0E0,1.1390599E8,1.8009308E9,4.1306207E9,2.5440975E9,0E0,0E0,1.652985E8,3.2267056E8,0E0,0E0,0E0,0E0,0E0,0E0,0E0,0E0,0E0,0E0,0E0,0E0,0E0,0E0,0E0,0E0],"parents":[2147483647,0,0,1,1,3,3,4,4,5,5,6,6,7,7,8,8,9,9,10,10,11,11,12,12,14,14,15,15,17,17,18,18,21,21,22,22,23,23,24,24,27,27,28,28],"right_children":[2,4,-1,6,8,10,12,14,16,18,20,22,24,-1,26,28,-1,30,32,-1,-1,34,36,38,40,-1,-1,42,44,-1,-1,-1,-1,-1,-1,-1,-1,-1,-1,-1,-1,-1,-1,-1,-1],"split_conditions":[5.963E6,1.742E6,7.5378755E3,3E4,7E3,1.3165494E6,1.3165494E6,2.018E3,1E0,1.206E6,1E0,1.206E6,4.6957E4,4.8981E3,2.02E3,2.015E3,2.1018E3,1.139E6,2.1E4,-2.1647375E3,-6.356363E3,1.139E6,1.09E5,4.3235E4,2.013E3,1.5883126E3,2.3527501E2,2.014E3,2.016E3,-1.4654733E1,-1.1706918E3,2.3608923E3,-5.983875E3,2.6653938E0,1.01666254E3,2.104725E3,-5.697975E3,2.1390703E3,1.801217E4,3.22299E3,-5.4966235E3,9.44625E1,-3.3964502E3,3.1927253E3,1.2350736E1],"split_indices":[1,1,0,2,2,1,1,0,6,1,4,1,2,0,0,0,0,1,2,0,0,1,2,2,0,0,0,0,0,0,0,0,0,0,0,0,0,0,0,0,0,0,0,0,0],"split_type":[0,0,0,0,0,0,0,0,0,0,0,0,0,0,0,0,0,0,0,0,0,0,0,0,0,0,0,0,0,0,0,0,0,0,0,0,0,0,0,0,0,0,0,0,0],"sum_hessian":[4.34E3,4.339E3,1E0,4.26E3,7.9E1,8.43E2,3.417E3,4E0,7.5E1,8.39E2,4E0,3.398E3,1.9E1,1E0,3E0,7.3E1,2E0,8.31E2,8E0,2E0,2E0,3.388E3,1E1,8E0,1.1E1,2E0,1E0,4E0,6.9E1,8.23E2,8E0,7E0,1E0,3.379E3,9E0,7E0,3E0,7E0,1E0,4E0,7E0,3E0,1E0,2E0,6.7E1],"tree_param":{"num_deleted":"0","num_feature":"7","num_nodes":"45","size_leaf_vector":"1"}},{"base_weights":[2.4443514E1,1.4607096E1,6.4071753E3,6.667391E0,1.72925E3,-1.250048E1,3.4610068E2,9.4004375E3,-1.7745589E2,-9.05345E0,-4.7066353E3,-5.5103534E2,1.3042277E3,3.62685E3,1.999875E2,-2.72625E3,5.634464E2,2.3170307E0,-1.406659E3,-8.139844E1,-2.0365875E3,-2.1210162E2,-1.369875E4,6.6657275E2,7.2750503E3,-2.5145001E2,-1.2585751E3,-5.0268753E2,8.645769E2,-3.0718176E0,6.917233E2,-1.125025E3,1.3074675E3,1.6818268E2,-6.4129193E2,1.01610004E3,-7.1805376E3,7.121038E1,1.077821E3,3.0562502E1,2.7589377E2],"categories":[],"categories_nodes":[],"categories_segments":[],"categories_sizes":[],"default_left":[0,0,0,0,0,0,0,0,0,0,0,0,0,0,0,0,0,0,0,0,0,0,0,0,0,0,0,0,0,0,0,0,0,0,0,0,0,0,0,0,0],"id":29,"left_children":[1,3,-1,5,7,9,11,13,15,17,19,21,23,-1,-1,25,27,29,31,-1,-1,33,35,37,-1,-1,-1,-1,39,-1,-1,-1,-1,-1,-1,-1,-1,-1,-1,-1,-1],"loss_changes":[9.105966E8,5.9072188E7,0E0,2.8117674E7,2.942021E8,6.615314E7,1.9927941E8,8.588387E7,3.3639024E7,6.4983388E7,2.5860844E7,5.318389E8,1.6225737E9,0E0,0E0,7.57806E6,1.0888244E7,1.17363416E8,4.621595E8,0E0,0E0,1.7676864E8,6.0575674E8,1.3729882E8,0E0,0E0,0E0,0E0,4.52326E5,0E0,0E0,0E0,0E0,0E0,0E0,0E0,0E0,0E0,0E0,0E0,0E0],"parents":[2147483647,0,0,1,1,3,3,4,4,5,5,6,6,7,7,8,8,9,9,10,10,11,11,12,12,15,15,16,16,17,17,18,18,21,21,22,22,23,23,28,28],"right_children":[2,4,-1,6,8,10,12,14,16,18,20,22,24,-1,-1,26,28,30,32,-1,-1,34,36,38,-1,-1,-1,-1,40,-1,-1,-1,-1,-1,-1,-1,-1,-1,-1,-1,-1],"split_conditions":[5.963E6,3.015E6,6.4071753E3,2.019E3,9.8E3,4E0,1.1918E4,2.019E3,1.327E4,1.876E6,2.018E3,1.876E6,1.3165494E6,3.62685E3,1.999875E2,2.019E3,2.017E3,1.742E6,4.7162E4,-8.139844E1,-2.0365875E3,5.8625E5,5.2E3,7.5375E5,7.2750503E3,-2.5145001E2,-1.2585751E3,-5.0268753E2,2.018E3,-3.0718176E0,6.917233E2,-1.125025E3,1.3074675E3,1.6818268E2,-6.4129193E2,1.01610004E3,-7.1805376E3,7.121038E1,1.077821E3,3.0562502E1,2.7589377E2],"split_indices":[1,1,0,0,2,6,2,0,2,1,0,1,1,0,0,0,0,1,2,0,0,1,2,1,0,0,0,0,0,0,0,0,0,0,0,0,0,0,0,0,0],"split_type":[0,0,0,0,0,0,0,0,0,0,0,0,0,0,0,0,0,0,0,0,0,0,0,0,0,0,0,0,0,0,0,0,0,0,0,0,0,0,0,0,0],"sum_hessian":[4.34E3,4.339E3,1E0,4.32E3,1.9E1,4.09E3,2.3E2,3E0,1.6E1,4.088E3,2E0,1.19E2,1.11E2,2E0,1E0,3E0,1.3E1,4.056E3,3.2E1,1E0,1E0,1.17E2,2E0,1.09E2,2E0,2E0,1E0,1E0,1.2E1,4.035E3,2.1E1,2.3E1,9E0,8.4E1,3.3E1,1E0,1E0,9.6E1,1.3E1,1E0,1.1E1],"tree_param":{"num_deleted":"0","num_feature":"7","num_nodes":"41","size_leaf_vector":"1"}},{"base_weights":[1.91976E1,1.083624E1,5.446125E3,5.46076E2,-6.214618E0,2.7369562E2,7.51875E3,2.2848217E0,-2.381677E3,4.1105457E2,-1.2467626E3,3.61935E3,3.3661875E3,-6.127227E2,2.2269733E1,1.9716562E2,-1.8848407E3,1.4636359E2,2.3776562E3,1.23315E3,1.699875E2,-9.7028094E2,2.2409167E3,-7.8107796E0,1.002064E3,6.0258075E2,-3.2876562E2,-1.0641012E1,5.507045E2,3.6727597E2,1.1711157E3,-1.8923949E2,-6.103463E3,-2.0115001E2,8.2212115E2,2.6744251E0,-8.215875E2,3.482025E1,1.495132E3,1.215586E1,3.4534064E2,-2.3727188E2,-4.651172E0],"categories":[],"categories_nodes":[],"categories_segments":[],"categories_sizes":[],"default_left":[0,0,0,0,0,0,0,0,0,0,0,0,0,0,0,0,0,0,0,0,0,0,0,0,0,0,0,0,0,0,0,0,0,0,0,0,0,0,0,0,0,0,0],"id":30,"left_children":[1,3,-1,5,7,9,11,13,15,17,-1,-1,19,21,23,25,-1,27,29,-1,-1,31,33,35,37,39,41,-1,-1,-1,-1,-1,-1,-1,-1,-1,-1,-1,-1,-1,-1,-1,-1],"loss_changes":[6.58027E8,3.961152E7,0E0,2.5243754E8,8.49452E7,8.080565E7,5.37712E7,5.1549268E7,1.5214456E8,6.576079E7,0E0,0E0,6.005884E6,1.3685949E8,1.1972599E8,2.3303128E6,0E0,3.477587E7,2.1623344E7,0E0,0E0,7.632925E8,2.3650672E7,1.8007256E8,4.262829E8,1.8032842E6,7.115927E5,0E0,0E0,0E0,0E0,0E0,0E0,0E0,0E0,0E0,0E0,0E0,0E0,0E0,0E0,0E0,0E0],"parents":[2147483647,0,0,1,1,3,3,4,4,5,5,6,6,7,7,8,8,9,9,12,12,13,13,14,14,15,15,17,17,18,18,21,21,22,22,23,23,24,24,25,25,26,26],"right_children":[2,4,-1,6,8,10,12,14,16,18,-1,-1,20,22,24,26,-1,28,30,-1,-1,32,34,36,38,40,42,-1,-1,-1,-1,-1,-1,-1,-1,-1,-1,-1,-1,-1,-1,-1,-1],"split_conditions":[5.963E6,7E3,5.446125E3,1.3165494E6,2.02E3,9.38E5,2.018E3,1.051E4,5.5945E5,4E0,-1.2467626E3,3.61935E3,2.02E3,2.546E6,2.019E3,1E0,-1.8848407E3,1E0,7.035E5,1.23315E3,1.699875E2,1.876E6,1E0,1.876E6,8.71E5,2.077E5,7.658E3,-1.0641012E1,5.507045E2,3.6727597E2,1.1711157E3,-1.8923949E2,-6.103463E3,-2.0115001E2,8.2212115E2,2.6744251E0,-8.215875E2,3.482025E1,1.495132E3,1.215586E1,3.4534064E2,-2.3727188E2,-4.651172E0],"split_indices":[1,2,0,1,0,1,0,2,1,6,0,0,0,1,0,3,0,5,1,0,0,1,3,1,1,1,2,0,0,0,0,0,0,0,0,0,0,0,0,0,0,0,0],"split_type":[0,0,0,0,0,0,0,0,0,0,0,0,0,0,0,0,0,0,0,0,0,0,0,0,0,0,0,0,0,0,0,0,0,0,0,0,0,0,0,0,0,0,0],"sum_hessian":[4.34E3,4.339E3,1E0,1.33E2,4.206E3,1.29E2,4E0,4.192E3,1.4E1,1.26E2,3E0,1E0,3E0,1.31E2,4.061E3,9E0,5E0,1.12E2,1.4E1,2E0,1E0,1.17E2,1.4E1,3.941E3,1.2E2,5E0,4E0,1.02E2,1E1,9E0,5E0,1.16E2,1E0,2E0,1.2E1,3.918E3,2.3E1,9.9E1,2.1E1,3E0,2E0,1E0,3E0],"tree_param":{"num_deleted":"0","num_feature":"7","num_nodes":"43","size_leaf_vector":"1"}},{"base_weights":[1.44888E1,7.3811936E0,4.629225E3,-7.0377594E1,8.166904E1,-3.3477825E1,-5.621402E3,-1.8992905E1,7.210352E2,-3.9978325E1,3.3957812E3,-9.915386E3,1.3428333E4,4.6398315E1,-2.0458042E3,9.562446E2,-1.344165E4,-2.39083E1,-2.0123492E3,-1.9649625E3,2.6682876E3,-1.7953084E4,-1.6094464E3,7.7416313E3,-1.6988813E3,-3.3716637E1,3.534198E2,-3.5716987E3,-1.1289275E3,7.374946E3,3.6710675E2,-3.448125E2,-9.391613E3,-1.1707169E1,1.900939E2,4.192069E3,-1.165445E3,-3.256875E2,-6.332835E3,-1.10305E3,-1.4137501E1,-1.2039995E1,9.39075E2,-4.3472327E2,1.4639977E2,-5.1772974E2,1.5911926E3,-4.3170315E1,3.2765076E3,1.1664817E0,1.8671285E3],"categories":[],"categories_nodes":[],"categories_segments":[],"categories_sizes":[],"default_left":[0,0,0,0,0,0,0,0,0,0,0,0,0,0,0,0,0,0,0,0,0,0,